digraph Tree {
node [shape=box] ;
0 [label="X[2] <= 1.5\ngini = 0.196\nsamples = 6573\nvalue = [370, 144, 183, 5876]"] ;
1 [label="X[1] <= 146.316\ngini = 0.39\nsamples = 1223\nvalue = [180, 55, 53, 935]"] ;
0 -> 1 [labeldistance=2.5, labelangle=45, headlabel="True"] ;
2 [label="X[1] <= 145.446\ngini = 0.525\nsamples = 743\nvalue = [155, 55, 51, 482]"] ;
1 -> 2 ;
3 [label="X[12] <= 1.73\ngini = 0.429\nsamples = 499\nvalue = [48, 55, 27, 369]"] ;
2 -> 3 ;
4 [label="X[13] <= 0.128\ngini = 0.386\nsamples = 465\nvalue = [48, 55, 5, 357]"] ;
3 -> 4 ;
5 [label="X[4] <= 15.732\ngini = 0.36\nsamples = 454\nvalue = [37, 55, 5, 357]"] ;
4 -> 5 ;
6 [label="X[12] <= 1.363\ngini = 0.298\nsamples = 356\nvalue = [3, 55, 5, 293]"] ;
5 -> 6 ;
7 [label="X[7] <= 32.455\ngini = 0.064\nsamples = 153\nvalue = [3, 0, 2, 148]"] ;
6 -> 7 ;
8 [label="X[12] <= 0.993\ngini = 0.667\nsamples = 6\nvalue = [2, 0, 2, 2]"] ;
7 -> 8 ;
9 [label="X[5] <= 1990.033\ngini = 0.5\nsamples = 4\nvalue = [0, 0, 2, 2]"] ;
8 -> 9 ;
10 [label="gini = 0.0\nsamples = 2\nvalue = [0, 0, 2, 0]"] ;
9 -> 10 ;
11 [label="gini = 0.0\nsamples = 2\nvalue = [0, 0, 0, 2]"] ;
9 -> 11 ;
12 [label="gini = 0.0\nsamples = 2\nvalue = [2, 0, 0, 0]"] ;
8 -> 12 ;
13 [label="X[8] <= 47.232\ngini = 0.014\nsamples = 147\nvalue = [1, 0, 0, 146]"] ;
7 -> 13 ;
14 [label="gini = 0.219\nsamples = 8\nvalue = [1, 0, 0, 7]"] ;
13 -> 14 ;
15 [label="gini = 0.0\nsamples = 139\nvalue = [0, 0, 0, 139]"] ;
13 -> 15 ;
16 [label="X[11] <= 11.658\ngini = 0.416\nsamples = 203\nvalue = [0, 55, 3, 145]"] ;
6 -> 16 ;
17 [label="X[4] <= 12.495\ngini = 0.558\nsamples = 30\nvalue = [0, 17, 3, 10]"] ;
16 -> 17 ;
18 [label="X[1] <= 144.101\ngini = 0.605\nsamples = 20\nvalue = [0, 7, 3, 10]"] ;
17 -> 18 ;
19 [label="X[1] <= 144.087\ngini = 0.569\nsamples = 12\nvalue = [0, 7, 3, 2]"] ;
18 -> 19 ;
20 [label="X[12] <= 1.522\ngini = 0.48\nsamples = 5\nvalue = [0, 0, 3, 2]"] ;
19 -> 20 ;
21 [label="gini = 0.0\nsamples = 2\nvalue = [0, 0, 0, 2]"] ;
20 -> 21 ;
22 [label="gini = 0.0\nsamples = 3\nvalue = [0, 0, 3, 0]"] ;
20 -> 22 ;
23 [label="gini = 0.0\nsamples = 7\nvalue = [0, 7, 0, 0]"] ;
19 -> 23 ;
24 [label="gini = 0.0\nsamples = 8\nvalue = [0, 0, 0, 8]"] ;
18 -> 24 ;
25 [label="gini = 0.0\nsamples = 10\nvalue = [0, 10, 0, 0]"] ;
17 -> 25 ;
26 [label="X[17] <= 0.029\ngini = 0.343\nsamples = 173\nvalue = [0, 38, 0, 135]"] ;
16 -> 26 ;
27 [label="X[13] <= 0.01\ngini = 0.303\nsamples = 161\nvalue = [0, 30, 0, 131]"] ;
26 -> 27 ;
28 [label="X[1] <= 144.1\ngini = 0.482\nsamples = 37\nvalue = [0, 15, 0, 22]"] ;
27 -> 28 ;
29 [label="gini = 0.0\nsamples = 16\nvalue = [0, 0, 0, 16]"] ;
28 -> 29 ;
30 [label="X[5] <= 2016.874\ngini = 0.408\nsamples = 21\nvalue = [0, 15, 0, 6]"] ;
28 -> 30 ;
31 [label="gini = 0.0\nsamples = 12\nvalue = [0, 12, 0, 0]"] ;
30 -> 31 ;
32 [label="X[0] <= -37.301\ngini = 0.444\nsamples = 9\nvalue = [0, 3, 0, 6]"] ;
30 -> 32 ;
33 [label="X[18] <= 27.0\ngini = 0.375\nsamples = 4\nvalue = [0, 3, 0, 1]"] ;
32 -> 33 ;
34 [label="gini = 0.0\nsamples = 1\nvalue = [0, 0, 0, 1]"] ;
33 -> 34 ;
35 [label="gini = 0.0\nsamples = 3\nvalue = [0, 3, 0, 0]"] ;
33 -> 35 ;
36 [label="gini = 0.0\nsamples = 5\nvalue = [0, 0, 0, 5]"] ;
32 -> 36 ;
37 [label="X[17] <= 0.01\ngini = 0.213\nsamples = 124\nvalue = [0, 15, 0, 109]"] ;
27 -> 37 ;
38 [label="gini = 0.0\nsamples = 54\nvalue = [0, 0, 0, 54]"] ;
37 -> 38 ;
39 [label="X[0] <= -37.305\ngini = 0.337\nsamples = 70\nvalue = [0, 15, 0, 55]"] ;
37 -> 39 ;
40 [label="X[4] <= 14.02\ngini = 0.499\nsamples = 19\nvalue = [0, 10, 0, 9]"] ;
39 -> 40 ;
41 [label="gini = 0.0\nsamples = 7\nvalue = [0, 7, 0, 0]"] ;
40 -> 41 ;
42 [label="X[17] <= 0.012\ngini = 0.375\nsamples = 12\nvalue = [0, 3, 0, 9]"] ;
40 -> 42 ;
43 [label="gini = 0.0\nsamples = 6\nvalue = [0, 0, 0, 6]"] ;
42 -> 43 ;
44 [label="X[9] <= 49.69\ngini = 0.5\nsamples = 6\nvalue = [0, 3, 0, 3]"] ;
42 -> 44 ;
45 [label="gini = 0.0\nsamples = 3\nvalue = [0, 0, 0, 3]"] ;
44 -> 45 ;
46 [label="gini = 0.0\nsamples = 3\nvalue = [0, 3, 0, 0]"] ;
44 -> 46 ;
47 [label="X[0] <= -37.258\ngini = 0.177\nsamples = 51\nvalue = [0, 5, 0, 46]"] ;
39 -> 47 ;
48 [label="X[1] <= 144.119\ngini = 0.085\nsamples = 45\nvalue = [0, 2, 0, 43]"] ;
47 -> 48 ;
49 [label="X[5] <= 2083.663\ngini = 0.044\nsamples = 44\nvalue = [0, 1, 0, 43]"] ;
48 -> 49 ;
50 [label="gini = 0.0\nsamples = 35\nvalue = [0, 0, 0, 35]"] ;
49 -> 50 ;
51 [label="X[4] <= 13.279\ngini = 0.198\nsamples = 9\nvalue = [0, 1, 0, 8]"] ;
49 -> 51 ;
52 [label="gini = 0.0\nsamples = 8\nvalue = [0, 0, 0, 8]"] ;
51 -> 52 ;
53 [label="gini = 0.0\nsamples = 1\nvalue = [0, 1, 0, 0]"] ;
51 -> 53 ;
54 [label="gini = 0.0\nsamples = 1\nvalue = [0, 1, 0, 0]"] ;
48 -> 54 ;
55 [label="X[0] <= -37.255\ngini = 0.5\nsamples = 6\nvalue = [0, 3, 0, 3]"] ;
47 -> 55 ;
56 [label="gini = 0.0\nsamples = 3\nvalue = [0, 3, 0, 0]"] ;
55 -> 56 ;
57 [label="gini = 0.0\nsamples = 3\nvalue = [0, 0, 0, 3]"] ;
55 -> 57 ;
58 [label="X[12] <= 1.445\ngini = 0.444\nsamples = 12\nvalue = [0, 8, 0, 4]"] ;
26 -> 58 ;
59 [label="X[8] <= 58.369\ngini = 0.198\nsamples = 9\nvalue = [0, 8, 0, 1]"] ;
58 -> 59 ;
60 [label="gini = 0.0\nsamples = 1\nvalue = [0, 0, 0, 1]"] ;
59 -> 60 ;
61 [label="gini = 0.0\nsamples = 8\nvalue = [0, 8, 0, 0]"] ;
59 -> 61 ;
62 [label="gini = 0.0\nsamples = 3\nvalue = [0, 0, 0, 3]"] ;
58 -> 62 ;
63 [label="X[6] <= 2337.74\ngini = 0.453\nsamples = 98\nvalue = [34, 0, 0, 64]"] ;
5 -> 63 ;
64 [label="X[19] <= 100.5\ngini = 0.346\nsamples = 81\nvalue = [18, 0, 0, 63]"] ;
63 -> 64 ;
65 [label="X[1] <= 142.506\ngini = 0.305\nsamples = 16\nvalue = [13, 0, 0, 3]"] ;
64 -> 65 ;
66 [label="gini = 0.0\nsamples = 12\nvalue = [12, 0, 0, 0]"] ;
65 -> 66 ;
67 [label="X[3] <= 107.5\ngini = 0.375\nsamples = 4\nvalue = [1, 0, 0, 3]"] ;
65 -> 67 ;
68 [label="gini = 0.0\nsamples = 3\nvalue = [0, 0, 0, 3]"] ;
67 -> 68 ;
69 [label="gini = 0.0\nsamples = 1\nvalue = [1, 0, 0, 0]"] ;
67 -> 69 ;
70 [label="X[9] <= 20.844\ngini = 0.142\nsamples = 65\nvalue = [5, 0, 0, 60]"] ;
64 -> 70 ;
71 [label="gini = 0.0\nsamples = 3\nvalue = [3, 0, 0, 0]"] ;
70 -> 71 ;
72 [label="X[8] <= 98.586\ngini = 0.062\nsamples = 62\nvalue = [2, 0, 0, 60]"] ;
70 -> 72 ;
73 [label="X[0] <= -38.368\ngini = 0.032\nsamples = 61\nvalue = [1, 0, 0, 60]"] ;
72 -> 73 ;
74 [label="X[20] <= 0.02\ngini = 0.375\nsamples = 4\nvalue = [1, 0, 0, 3]"] ;
73 -> 74 ;
75 [label="gini = 0.0\nsamples = 1\nvalue = [1, 0, 0, 0]"] ;
74 -> 75 ;
76 [label="gini = 0.0\nsamples = 3\nvalue = [0, 0, 0, 3]"] ;
74 -> 76 ;
77 [label="gini = 0.0\nsamples = 57\nvalue = [0, 0, 0, 57]"] ;
73 -> 77 ;
78 [label="gini = 0.0\nsamples = 1\nvalue = [1, 0, 0, 0]"] ;
72 -> 78 ;
79 [label="X[19] <= 120.0\ngini = 0.111\nsamples = 17\nvalue = [16, 0, 0, 1]"] ;
63 -> 79 ;
80 [label="gini = 0.0\nsamples = 1\nvalue = [0, 0, 0, 1]"] ;
79 -> 80 ;
81 [label="gini = 0.0\nsamples = 16\nvalue = [16, 0, 0, 0]"] ;
79 -> 81 ;
82 [label="gini = 0.0\nsamples = 11\nvalue = [11, 0, 0, 0]"] ;
4 -> 82 ;
83 [label="X[1] <= 143.207\ngini = 0.457\nsamples = 34\nvalue = [0, 0, 22, 12]"] ;
3 -> 83 ;
84 [label="X[5] <= 1937.262\ngini = 0.083\nsamples = 23\nvalue = [0, 0, 22, 1]"] ;
83 -> 84 ;
85 [label="gini = 0.0\nsamples = 22\nvalue = [0, 0, 22, 0]"] ;
84 -> 85 ;
86 [label="gini = 0.0\nsamples = 1\nvalue = [0, 0, 0, 1]"] ;
84 -> 86 ;
87 [label="gini = 0.0\nsamples = 11\nvalue = [0, 0, 0, 11]"] ;
83 -> 87 ;
88 [label="X[0] <= -37.738\ngini = 0.584\nsamples = 244\nvalue = [107, 0, 24, 113]"] ;
2 -> 88 ;
89 [label="X[12] <= 0.298\ngini = 0.537\nsamples = 158\nvalue = [95, 0, 15, 48]"] ;
88 -> 89 ;
90 [label="X[13] <= 0.021\ngini = 0.5\nsamples = 28\nvalue = [8, 0, 2, 18]"] ;
89 -> 90 ;
91 [label="X[12] <= 0.235\ngini = 0.34\nsamples = 10\nvalue = [8, 0, 1, 1]"] ;
90 -> 91 ;
92 [label="gini = 0.0\nsamples = 8\nvalue = [8, 0, 0, 0]"] ;
91 -> 92 ;
93 [label="X[9] <= 95.434\ngini = 0.5\nsamples = 2\nvalue = [0, 0, 1, 1]"] ;
91 -> 93 ;
94 [label="gini = 0.0\nsamples = 1\nvalue = [0, 0, 0, 1]"] ;
93 -> 94 ;
95 [label="gini = 0.0\nsamples = 1\nvalue = [0, 0, 1, 0]"] ;
93 -> 95 ;
96 [label="X[17] <= 0.012\ngini = 0.105\nsamples = 18\nvalue = [0, 0, 1, 17]"] ;
90 -> 96 ;
97 [label="gini = 0.0\nsamples = 1\nvalue = [0, 0, 1, 0]"] ;
96 -> 97 ;
98 [label="gini = 0.0\nsamples = 17\nvalue = [0, 0, 0, 17]"] ;
96 -> 98 ;
99 [label="X[1] <= 146.162\ngini = 0.489\nsamples = 130\nvalue = [87, 0, 13, 30]"] ;
89 -> 99 ;
100 [label="X[21] <= 869.0\ngini = 0.407\nsamples = 114\nvalue = [85, 0, 9, 20]"] ;
99 -> 100 ;
101 [label="X[11] <= 14.044\ngini = 0.374\nsamples = 110\nvalue = [85, 0, 8, 17]"] ;
100 -> 101 ;
102 [label="X[1] <= 145.864\ngini = 0.342\nsamples = 104\nvalue = [83, 0, 8, 13]"] ;
101 -> 102 ;
103 [label="X[8] <= 54.068\ngini = 0.435\nsamples = 60\nvalue = [43, 0, 4, 13]"] ;
102 -> 103 ;
104 [label="X[10] <= 244.485\ngini = 0.637\nsamples = 17\nvalue = [5, 0, 4, 8]"] ;
103 -> 104 ;
105 [label="X[11] <= 8.979\ngini = 0.278\nsamples = 6\nvalue = [5, 0, 1, 0]"] ;
104 -> 105 ;
106 [label="gini = 0.0\nsamples = 1\nvalue = [0, 0, 1, 0]"] ;
105 -> 106 ;
107 [label="gini = 0.0\nsamples = 5\nvalue = [5, 0, 0, 0]"] ;
105 -> 107 ;
108 [label="X[1] <= 145.823\ngini = 0.397\nsamples = 11\nvalue = [0, 0, 3, 8]"] ;
104 -> 108 ;
109 [label="X[17] <= 0.05\ngini = 0.48\nsamples = 5\nvalue = [0, 0, 3, 2]"] ;
108 -> 109 ;
110 [label="gini = 0.0\nsamples = 3\nvalue = [0, 0, 3, 0]"] ;
109 -> 110 ;
111 [label="gini = 0.0\nsamples = 2\nvalue = [0, 0, 0, 2]"] ;
109 -> 111 ;
112 [label="gini = 0.0\nsamples = 6\nvalue = [0, 0, 0, 6]"] ;
108 -> 112 ;
113 [label="X[5] <= 2056.391\ngini = 0.206\nsamples = 43\nvalue = [38, 0, 0, 5]"] ;
103 -> 113 ;
114 [label="X[10] <= 283.544\ngini = 0.494\nsamples = 9\nvalue = [5, 0, 0, 4]"] ;
113 -> 114 ;
115 [label="gini = 0.0\nsamples = 4\nvalue = [4, 0, 0, 0]"] ;
114 -> 115 ;
116 [label="X[8] <= 77.711\ngini = 0.32\nsamples = 5\nvalue = [1, 0, 0, 4]"] ;
114 -> 116 ;
117 [label="gini = 0.0\nsamples = 4\nvalue = [0, 0, 0, 4]"] ;
116 -> 117 ;
118 [label="gini = 0.0\nsamples = 1\nvalue = [1, 0, 0, 0]"] ;
116 -> 118 ;
119 [label="X[21] <= 25.8\ngini = 0.057\nsamples = 34\nvalue = [33, 0, 0, 1]"] ;
113 -> 119 ;
120 [label="gini = 0.0\nsamples = 1\nvalue = [0, 0, 0, 1]"] ;
119 -> 120 ;
121 [label="gini = 0.0\nsamples = 33\nvalue = [33, 0, 0, 0]"] ;
119 -> 121 ;
122 [label="X[4] <= 14.022\ngini = 0.165\nsamples = 44\nvalue = [40, 0, 4, 0]"] ;
102 -> 122 ;
123 [label="X[11] <= 6.546\ngini = 0.053\nsamples = 37\nvalue = [36, 0, 1, 0]"] ;
122 -> 123 ;
124 [label="X[1] <= 146.037\ngini = 0.278\nsamples = 6\nvalue = [5, 0, 1, 0]"] ;
123 -> 124 ;
125 [label="gini = 0.0\nsamples = 1\nvalue = [0, 0, 1, 0]"] ;
124 -> 125 ;
126 [label="gini = 0.0\nsamples = 5\nvalue = [5, 0, 0, 0]"] ;
124 -> 126 ;
127 [label="gini = 0.0\nsamples = 31\nvalue = [31, 0, 0, 0]"] ;
123 -> 127 ;
128 [label="X[12] <= 0.472\ngini = 0.49\nsamples = 7\nvalue = [4, 0, 3, 0]"] ;
122 -> 128 ;
129 [label="gini = 0.0\nsamples = 3\nvalue = [0, 0, 3, 0]"] ;
128 -> 129 ;
130 [label="gini = 0.0\nsamples = 4\nvalue = [4, 0, 0, 0]"] ;
128 -> 130 ;
131 [label="X[1] <= 145.837\ngini = 0.444\nsamples = 6\nvalue = [2, 0, 0, 4]"] ;
101 -> 131 ;
132 [label="gini = 0.0\nsamples = 2\nvalue = [2, 0, 0, 0]"] ;
131 -> 132 ;
133 [label="gini = 0.0\nsamples = 4\nvalue = [0, 0, 0, 4]"] ;
131 -> 133 ;
134 [label="X[17] <= 0.102\ngini = 0.375\nsamples = 4\nvalue = [0, 0, 1, 3]"] ;
100 -> 134 ;
135 [label="gini = 0.0\nsamples = 3\nvalue = [0, 0, 0, 3]"] ;
134 -> 135 ;
136 [label="gini = 0.0\nsamples = 1\nvalue = [0, 0, 1, 0]"] ;
134 -> 136 ;
137 [label="X[6] <= 2198.689\ngini = 0.531\nsamples = 16\nvalue = [2, 0, 4, 10]"] ;
99 -> 137 ;
138 [label="X[20] <= -1.511\ngini = 0.379\nsamples = 13\nvalue = [2, 0, 1, 10]"] ;
137 -> 138 ;
139 [label="X[19] <= 96.0\ngini = 0.625\nsamples = 4\nvalue = [2, 0, 1, 1]"] ;
138 -> 139 ;
140 [label="gini = 0.0\nsamples = 2\nvalue = [2, 0, 0, 0]"] ;
139 -> 140 ;
141 [label="X[9] <= 121.544\ngini = 0.5\nsamples = 2\nvalue = [0, 0, 1, 1]"] ;
139 -> 141 ;
142 [label="gini = 0.0\nsamples = 1\nvalue = [0, 0, 1, 0]"] ;
141 -> 142 ;
143 [label="gini = 0.0\nsamples = 1\nvalue = [0, 0, 0, 1]"] ;
141 -> 143 ;
144 [label="gini = 0.0\nsamples = 9\nvalue = [0, 0, 0, 9]"] ;
138 -> 144 ;
145 [label="gini = 0.0\nsamples = 3\nvalue = [0, 0, 3, 0]"] ;
137 -> 145 ;
146 [label="X[1] <= 145.582\ngini = 0.398\nsamples = 86\nvalue = [12, 0, 9, 65]"] ;
88 -> 146 ;
147 [label="X[18] <= 35.5\ngini = 0.662\nsamples = 21\nvalue = [7, 0, 8, 6]"] ;
146 -> 147 ;
148 [label="X[1] <= 145.502\ngini = 0.219\nsamples = 8\nvalue = [0, 0, 7, 1]"] ;
147 -> 148 ;
149 [label="gini = 0.0\nsamples = 1\nvalue = [0, 0, 0, 1]"] ;
148 -> 149 ;
150 [label="gini = 0.0\nsamples = 7\nvalue = [0, 0, 7, 0]"] ;
148 -> 150 ;
151 [label="X[20] <= -0.063\ngini = 0.556\nsamples = 13\nvalue = [7, 0, 1, 5]"] ;
147 -> 151 ;
152 [label="X[17] <= 0.091\ngini = 0.46\nsamples = 10\nvalue = [7, 0, 1, 2]"] ;
151 -> 152 ;
153 [label="X[10] <= 266.624\ngini = 0.5\nsamples = 2\nvalue = [0, 0, 1, 1]"] ;
152 -> 153 ;
154 [label="gini = 0.0\nsamples = 1\nvalue = [0, 0, 1, 0]"] ;
153 -> 154 ;
155 [label="gini = 0.0\nsamples = 1\nvalue = [0, 0, 0, 1]"] ;
153 -> 155 ;
156 [label="X[11] <= 7.665\ngini = 0.219\nsamples = 8\nvalue = [7, 0, 0, 1]"] ;
152 -> 156 ;
157 [label="gini = 0.32\nsamples = 5\nvalue = [4, 0, 0, 1]"] ;
156 -> 157 ;
158 [label="gini = 0.0\nsamples = 3\nvalue = [3, 0, 0, 0]"] ;
156 -> 158 ;
159 [label="gini = 0.0\nsamples = 3\nvalue = [0, 0, 0, 3]"] ;
151 -> 159 ;
160 [label="X[8] <= 29.004\ngini = 0.17\nsamples = 65\nvalue = [5, 0, 1, 59]"] ;
146 -> 160 ;
161 [label="X[20] <= -0.543\ngini = 0.5\nsamples = 6\nvalue = [3, 0, 0, 3]"] ;
160 -> 161 ;
162 [label="gini = 0.0\nsamples = 3\nvalue = [3, 0, 0, 0]"] ;
161 -> 162 ;
163 [label="gini = 0.0\nsamples = 3\nvalue = [0, 0, 0, 3]"] ;
161 -> 163 ;
164 [label="X[20] <= 11.257\ngini = 0.098\nsamples = 59\nvalue = [2, 0, 1, 56]"] ;
160 -> 164 ;
165 [label="X[17] <= 0.006\ngini = 0.067\nsamples = 58\nvalue = [1, 0, 1, 56]"] ;
164 -> 165 ;
166 [label="X[14] <= 2.928\ngini = 0.32\nsamples = 5\nvalue = [0, 0, 1, 4]"] ;
165 -> 166 ;
167 [label="gini = 0.0\nsamples = 4\nvalue = [0, 0, 0, 4]"] ;
166 -> 167 ;
168 [label="gini = 0.0\nsamples = 1\nvalue = [0, 0, 1, 0]"] ;
166 -> 168 ;
169 [label="X[4] <= 13.852\ngini = 0.037\nsamples = 53\nvalue = [1, 0, 0, 52]"] ;
165 -> 169 ;
170 [label="gini = 0.0\nsamples = 48\nvalue = [0, 0, 0, 48]"] ;
169 -> 170 ;
171 [label="X[11] <= 10.047\ngini = 0.32\nsamples = 5\nvalue = [1, 0, 0, 4]"] ;
169 -> 171 ;
172 [label="gini = 0.0\nsamples = 4\nvalue = [0, 0, 0, 4]"] ;
171 -> 172 ;
173 [label="gini = 0.0\nsamples = 1\nvalue = [1, 0, 0, 0]"] ;
171 -> 173 ;
174 [label="gini = 0.0\nsamples = 1\nvalue = [1, 0, 0, 0]"] ;
164 -> 174 ;
175 [label="X[16] <= 69.5\ngini = 0.107\nsamples = 480\nvalue = [25, 0, 2, 453]"] ;
1 -> 175 ;
176 [label="X[1] <= 146.421\ngini = 0.375\nsamples = 4\nvalue = [3, 0, 0, 1]"] ;
175 -> 176 ;
177 [label="gini = 0.0\nsamples = 1\nvalue = [0, 0, 0, 1]"] ;
176 -> 177 ;
178 [label="gini = 0.0\nsamples = 3\nvalue = [3, 0, 0, 0]"] ;
176 -> 178 ;
179 [label="X[9] <= 91.045\ngini = 0.096\nsamples = 476\nvalue = [22, 0, 2, 452]"] ;
175 -> 179 ;
180 [label="X[20] <= 16.093\ngini = 0.052\nsamples = 410\nvalue = [11, 0, 0, 399]"] ;
179 -> 180 ;
181 [label="X[6] <= 1514.784\ngini = 0.048\nsamples = 409\nvalue = [10, 0, 0, 399]"] ;
180 -> 181 ;
182 [label="X[6] <= 1491.226\ngini = 0.408\nsamples = 7\nvalue = [2, 0, 0, 5]"] ;
181 -> 182 ;
183 [label="gini = 0.0\nsamples = 5\nvalue = [0, 0, 0, 5]"] ;
182 -> 183 ;
184 [label="gini = 0.0\nsamples = 2\nvalue = [2, 0, 0, 0]"] ;
182 -> 184 ;
185 [label="X[20] <= -5.363\ngini = 0.039\nsamples = 402\nvalue = [8, 0, 0, 394]"] ;
181 -> 185 ;
186 [label="X[13] <= 0.153\ngini = 0.32\nsamples = 10\nvalue = [2, 0, 0, 8]"] ;
185 -> 186 ;
187 [label="gini = 0.0\nsamples = 2\nvalue = [2, 0, 0, 0]"] ;
186 -> 187 ;
188 [label="gini = 0.0\nsamples = 8\nvalue = [0, 0, 0, 8]"] ;
186 -> 188 ;
189 [label="X[12] <= 3.079\ngini = 0.03\nsamples = 392\nvalue = [6, 0, 0, 386]"] ;
185 -> 189 ;
190 [label="X[18] <= 61.5\ngini = 0.025\nsamples = 389\nvalue = [5, 0, 0, 384]"] ;
189 -> 190 ;
191 [label="X[1] <= 149.433\ngini = 0.013\nsamples = 314\nvalue = [2, 0, 0, 312]"] ;
190 -> 191 ;
192 [label="X[4] <= 16.47\ngini = 0.007\nsamples = 298\nvalue = [1, 0, 0, 297]"] ;
191 -> 192 ;
193 [label="gini = 0.0\nsamples = 275\nvalue = [0, 0, 0, 275]"] ;
192 -> 193 ;
194 [label="X[4] <= 16.506\ngini = 0.083\nsamples = 23\nvalue = [1, 0, 0, 22]"] ;
192 -> 194 ;
195 [label="gini = 0.0\nsamples = 1\nvalue = [1, 0, 0, 0]"] ;
194 -> 195 ;
196 [label="gini = 0.0\nsamples = 22\nvalue = [0, 0, 0, 22]"] ;
194 -> 196 ;
197 [label="X[1] <= 149.494\ngini = 0.117\nsamples = 16\nvalue = [1, 0, 0, 15]"] ;
191 -> 197 ;
198 [label="gini = 0.0\nsamples = 1\nvalue = [1, 0, 0, 0]"] ;
197 -> 198 ;
199 [label="gini = 0.0\nsamples = 15\nvalue = [0, 0, 0, 15]"] ;
197 -> 199 ;
200 [label="X[17] <= 0.009\ngini = 0.077\nsamples = 75\nvalue = [3, 0, 0, 72]"] ;
190 -> 200 ;
201 [label="X[8] <= 29.463\ngini = 0.408\nsamples = 7\nvalue = [2, 0, 0, 5]"] ;
200 -> 201 ;
202 [label="gini = 0.0\nsamples = 5\nvalue = [0, 0, 0, 5]"] ;
201 -> 202 ;
203 [label="gini = 0.0\nsamples = 2\nvalue = [2, 0, 0, 0]"] ;
201 -> 203 ;
204 [label="X[10] <= 282.127\ngini = 0.029\nsamples = 68\nvalue = [1, 0, 0, 67]"] ;
200 -> 204 ;
205 [label="gini = 0.0\nsamples = 65\nvalue = [0, 0, 0, 65]"] ;
204 -> 205 ;
206 [label="X[13] <= 0.09\ngini = 0.444\nsamples = 3\nvalue = [1, 0, 0, 2]"] ;
204 -> 206 ;
207 [label="gini = 0.0\nsamples = 1\nvalue = [1, 0, 0, 0]"] ;
206 -> 207 ;
208 [label="gini = 0.0\nsamples = 2\nvalue = [0, 0, 0, 2]"] ;
206 -> 208 ;
209 [label="X[9] <= 26.688\ngini = 0.444\nsamples = 3\nvalue = [1, 0, 0, 2]"] ;
189 -> 209 ;
210 [label="gini = 0.0\nsamples = 1\nvalue = [1, 0, 0, 0]"] ;
209 -> 210 ;
211 [label="gini = 0.0\nsamples = 2\nvalue = [0, 0, 0, 2]"] ;
209 -> 211 ;
212 [label="gini = 0.0\nsamples = 1\nvalue = [1, 0, 0, 0]"] ;
180 -> 212 ;
213 [label="X[17] <= 0.007\ngini = 0.326\nsamples = 66\nvalue = [11, 0, 2, 53]"] ;
179 -> 213 ;
214 [label="X[17] <= 0.005\ngini = 0.5\nsamples = 18\nvalue = [9, 0, 0, 9]"] ;
213 -> 214 ;
215 [label="X[11] <= 10.901\ngini = 0.375\nsamples = 12\nvalue = [3, 0, 0, 9]"] ;
214 -> 215 ;
216 [label="gini = 0.0\nsamples = 2\nvalue = [2, 0, 0, 0]"] ;
215 -> 216 ;
217 [label="X[17] <= 0.004\ngini = 0.18\nsamples = 10\nvalue = [1, 0, 0, 9]"] ;
215 -> 217 ;
218 [label="gini = 0.0\nsamples = 1\nvalue = [1, 0, 0, 0]"] ;
217 -> 218 ;
219 [label="gini = 0.0\nsamples = 9\nvalue = [0, 0, 0, 9]"] ;
217 -> 219 ;
220 [label="gini = 0.0\nsamples = 6\nvalue = [6, 0, 0, 0]"] ;
214 -> 220 ;
221 [label="X[1] <= 146.337\ngini = 0.156\nsamples = 48\nvalue = [2, 0, 2, 44]"] ;
213 -> 221 ;
222 [label="gini = 0.0\nsamples = 1\nvalue = [0, 0, 1, 0]"] ;
221 -> 222 ;
223 [label="X[9] <= 92.237\ngini = 0.121\nsamples = 47\nvalue = [2, 0, 1, 44]"] ;
221 -> 223 ;
224 [label="gini = 0.0\nsamples = 1\nvalue = [0, 0, 1, 0]"] ;
223 -> 224 ;
225 [label="X[6] <= 2423.37\ngini = 0.083\nsamples = 46\nvalue = [2, 0, 0, 44]"] ;
223 -> 225 ;
226 [label="X[19] <= 89.0\ngini = 0.044\nsamples = 44\nvalue = [1, 0, 0, 43]"] ;
225 -> 226 ;
227 [label="X[6] <= 2069.842\ngini = 0.32\nsamples = 5\nvalue = [1, 0, 0, 4]"] ;
226 -> 227 ;
228 [label="gini = 0.0\nsamples = 1\nvalue = [1, 0, 0, 0]"] ;
227 -> 228 ;
229 [label="gini = 0.0\nsamples = 4\nvalue = [0, 0, 0, 4]"] ;
227 -> 229 ;
230 [label="gini = 0.0\nsamples = 39\nvalue = [0, 0, 0, 39]"] ;
226 -> 230 ;
231 [label="X[19] <= 126.0\ngini = 0.5\nsamples = 2\nvalue = [1, 0, 0, 1]"] ;
225 -> 231 ;
232 [label="gini = 0.0\nsamples = 1\nvalue = [0, 0, 0, 1]"] ;
231 -> 232 ;
233 [label="gini = 0.0\nsamples = 1\nvalue = [1, 0, 0, 0]"] ;
231 -> 233 ;
234 [label="X[16] <= 106.5\ngini = 0.145\nsamples = 5350\nvalue = [190, 89, 130, 4941]"] ;
0 -> 234 [labeldistance=2.5, labelangle=-45, headlabel="False"] ;
235 [label="X[1] <= 145.61\ngini = 0.236\nsamples = 1833\nvalue = [155, 37, 48, 1593]"] ;
234 -> 235 ;
236 [label="X[2] <= 15.5\ngini = 0.385\nsamples = 682\nvalue = [131, 18, 15, 518]"] ;
235 -> 236 ;
237 [label="X[1] <= 145.596\ngini = 0.458\nsamples = 524\nvalue = [129, 17, 15, 363]"] ;
236 -> 237 ;
238 [label="X[0] <= -37.619\ngini = 0.442\nsamples = 510\nvalue = [117, 17, 14, 362]"] ;
237 -> 238 ;
239 [label="X[17] <= 0.18\ngini = 0.584\nsamples = 107\nvalue = [44, 11, 0, 52]"] ;
238 -> 239 ;
240 [label="X[5] <= 2097.074\ngini = 0.587\nsamples = 68\nvalue = [37, 10, 0, 21]"] ;
239 -> 240 ;
241 [label="X[6] <= 1948.004\ngini = 0.444\nsamples = 51\nvalue = [34, 0, 0, 17]"] ;
240 -> 241 ;
242 [label="X[20] <= 1.2\ngini = 0.26\nsamples = 26\nvalue = [22, 0, 0, 4]"] ;
241 -> 242 ;
243 [label="X[2] <= 5.5\ngini = 0.083\nsamples = 23\nvalue = [22, 0, 0, 1]"] ;
242 -> 243 ;
244 [label="X[0] <= -37.64\ngini = 0.444\nsamples = 3\nvalue = [2, 0, 0, 1]"] ;
243 -> 244 ;
245 [label="gini = 0.0\nsamples = 1\nvalue = [0, 0, 0, 1]"] ;
244 -> 245 ;
246 [label="gini = 0.0\nsamples = 2\nvalue = [2, 0, 0, 0]"] ;
244 -> 246 ;
247 [label="gini = 0.0\nsamples = 20\nvalue = [20, 0, 0, 0]"] ;
243 -> 247 ;
248 [label="gini = 0.0\nsamples = 3\nvalue = [0, 0, 0, 3]"] ;
242 -> 248 ;
249 [label="X[21] <= 225.6\ngini = 0.499\nsamples = 25\nvalue = [12, 0, 0, 13]"] ;
241 -> 249 ;
250 [label="X[2] <= 9.5\ngini = 0.32\nsamples = 10\nvalue = [2, 0, 0, 8]"] ;
249 -> 250 ;
251 [label="gini = 0.0\nsamples = 7\nvalue = [0, 0, 0, 7]"] ;
250 -> 251 ;
252 [label="X[14] <= 2.293\ngini = 0.444\nsamples = 3\nvalue = [2, 0, 0, 1]"] ;
250 -> 252 ;
253 [label="gini = 0.0\nsamples = 2\nvalue = [2, 0, 0, 0]"] ;
252 -> 253 ;
254 [label="gini = 0.0\nsamples = 1\nvalue = [0, 0, 0, 1]"] ;
252 -> 254 ;
255 [label="X[14] <= 2.405\ngini = 0.444\nsamples = 15\nvalue = [10, 0, 0, 5]"] ;
249 -> 255 ;
256 [label="gini = 0.0\nsamples = 4\nvalue = [4, 0, 0, 0]"] ;
255 -> 256 ;
257 [label="X[10] <= 283.812\ngini = 0.496\nsamples = 11\nvalue = [6, 0, 0, 5]"] ;
255 -> 257 ;
258 [label="X[2] <= 2.5\ngini = 0.48\nsamples = 10\nvalue = [6, 0, 0, 4]"] ;
257 -> 258 ;
259 [label="gini = 0.0\nsamples = 1\nvalue = [1, 0, 0, 0]"] ;
258 -> 259 ;
260 [label="X[14] <= 2.501\ngini = 0.494\nsamples = 9\nvalue = [5, 0, 0, 4]"] ;
258 -> 260 ;
261 [label="gini = 0.0\nsamples = 1\nvalue = [0, 0, 0, 1]"] ;
260 -> 261 ;
262 [label="X[2] <= 3.5\ngini = 0.469\nsamples = 8\nvalue = [5, 0, 0, 3]"] ;
260 -> 262 ;
263 [label="gini = 0.0\nsamples = 1\nvalue = [0, 0, 0, 1]"] ;
262 -> 263 ;
264 [label="X[5] <= 2037.605\ngini = 0.408\nsamples = 7\nvalue = [5, 0, 0, 2]"] ;
262 -> 264 ;
265 [label="gini = 0.0\nsamples = 2\nvalue = [2, 0, 0, 0]"] ;
264 -> 265 ;
266 [label="X[2] <= 8.5\ngini = 0.48\nsamples = 5\nvalue = [3, 0, 0, 2]"] ;
264 -> 266 ;
267 [label="X[0] <= -37.731\ngini = 0.5\nsamples = 4\nvalue = [2, 0, 0, 2]"] ;
266 -> 267 ;
268 [label="X[3] <= 9.0\ngini = 0.444\nsamples = 3\nvalue = [2, 0, 0, 1]"] ;
267 -> 268 ;
269 [label="gini = 0.5\nsamples = 2\nvalue = [1, 0, 0, 1]"] ;
268 -> 269 ;
270 [label="gini = 0.0\nsamples = 1\nvalue = [1, 0, 0, 0]"] ;
268 -> 270 ;
271 [label="gini = 0.0\nsamples = 1\nvalue = [0, 0, 0, 1]"] ;
267 -> 271 ;
272 [label="gini = 0.0\nsamples = 1\nvalue = [1, 0, 0, 0]"] ;
266 -> 272 ;
273 [label="gini = 0.0\nsamples = 1\nvalue = [0, 0, 0, 1]"] ;
257 -> 273 ;
274 [label="X[11] <= 11.067\ngini = 0.567\nsamples = 17\nvalue = [3, 10, 0, 4]"] ;
240 -> 274 ;
275 [label="gini = 0.0\nsamples = 4\nvalue = [0, 0, 0, 4]"] ;
274 -> 275 ;
276 [label="X[4] <= 11.474\ngini = 0.355\nsamples = 13\nvalue = [3, 10, 0, 0]"] ;
274 -> 276 ;
277 [label="gini = 0.0\nsamples = 3\nvalue = [3, 0, 0, 0]"] ;
276 -> 277 ;
278 [label="gini = 0.0\nsamples = 10\nvalue = [0, 10, 0, 0]"] ;
276 -> 278 ;
279 [label="X[4] <= 15.451\ngini = 0.335\nsamples = 39\nvalue = [7, 1, 0, 31]"] ;
239 -> 279 ;
280 [label="X[14] <= 1.85\ngini = 0.219\nsamples = 33\nvalue = [3, 1, 0, 29]"] ;
279 -> 280 ;
281 [label="gini = 0.0\nsamples = 2\nvalue = [2, 0, 0, 0]"] ;
280 -> 281 ;
282 [label="X[4] <= 11.42\ngini = 0.123\nsamples = 31\nvalue = [1, 1, 0, 29]"] ;
280 -> 282 ;
283 [label="gini = 0.0\nsamples = 1\nvalue = [0, 1, 0, 0]"] ;
282 -> 283 ;
284 [label="X[9] <= 29.46\ngini = 0.064\nsamples = 30\nvalue = [1, 0, 0, 29]"] ;
282 -> 284 ;
285 [label="X[4] <= 15.103\ngini = 0.444\nsamples = 3\nvalue = [1, 0, 0, 2]"] ;
284 -> 285 ;
286 [label="gini = 0.0\nsamples = 1\nvalue = [1, 0, 0, 0]"] ;
285 -> 286 ;
287 [label="gini = 0.0\nsamples = 2\nvalue = [0, 0, 0, 2]"] ;
285 -> 287 ;
288 [label="gini = 0.0\nsamples = 27\nvalue = [0, 0, 0, 27]"] ;
284 -> 288 ;
289 [label="X[11] <= 12.365\ngini = 0.444\nsamples = 6\nvalue = [4, 0, 0, 2]"] ;
279 -> 289 ;
290 [label="X[14] <= 2.109\ngini = 0.444\nsamples = 3\nvalue = [1, 0, 0, 2]"] ;
289 -> 290 ;
291 [label="gini = 0.0\nsamples = 2\nvalue = [0, 0, 0, 2]"] ;
290 -> 291 ;
292 [label="gini = 0.0\nsamples = 1\nvalue = [1, 0, 0, 0]"] ;
290 -> 292 ;
293 [label="gini = 0.0\nsamples = 3\nvalue = [3, 0, 0, 0]"] ;
289 -> 293 ;
294 [label="X[0] <= -37.267\ngini = 0.374\nsamples = 403\nvalue = [73, 6, 14, 310]"] ;
238 -> 294 ;
295 [label="X[11] <= 8.632\ngini = 0.275\nsamples = 339\nvalue = [45, 1, 8, 285]"] ;
294 -> 295 ;
296 [label="X[2] <= 4.5\ngini = 0.637\nsamples = 33\nvalue = [11, 0, 7, 15]"] ;
295 -> 296 ;
297 [label="X[8] <= 51.816\ngini = 0.65\nsamples = 25\nvalue = [11, 0, 7, 7]"] ;
296 -> 297 ;
298 [label="X[14] <= 2.875\ngini = 0.512\nsamples = 17\nvalue = [11, 0, 2, 4]"] ;
297 -> 298 ;
299 [label="gini = 0.0\nsamples = 8\nvalue = [8, 0, 0, 0]"] ;
298 -> 299 ;
300 [label="X[10] <= 243.692\ngini = 0.642\nsamples = 9\nvalue = [3, 0, 2, 4]"] ;
298 -> 300 ;
301 [label="gini = 0.0\nsamples = 3\nvalue = [3, 0, 0, 0]"] ;
300 -> 301 ;
302 [label="X[7] <= 165.952\ngini = 0.444\nsamples = 6\nvalue = [0, 0, 2, 4]"] ;
300 -> 302 ;
303 [label="gini = 0.0\nsamples = 4\nvalue = [0, 0, 0, 4]"] ;
302 -> 303 ;
304 [label="gini = 0.0\nsamples = 2\nvalue = [0, 0, 2, 0]"] ;
302 -> 304 ;
305 [label="X[1] <= 145.529\ngini = 0.469\nsamples = 8\nvalue = [0, 0, 5, 3]"] ;
297 -> 305 ;
306 [label="gini = 0.0\nsamples = 4\nvalue = [0, 0, 4, 0]"] ;
305 -> 306 ;
307 [label="X[7] <= 132.332\ngini = 0.375\nsamples = 4\nvalue = [0, 0, 1, 3]"] ;
305 -> 307 ;
308 [label="gini = 0.0\nsamples = 3\nvalue = [0, 0, 0, 3]"] ;
307 -> 308 ;
309 [label="gini = 0.0\nsamples = 1\nvalue = [0, 0, 1, 0]"] ;
307 -> 309 ;
310 [label="gini = 0.0\nsamples = 8\nvalue = [0, 0, 0, 8]"] ;
296 -> 310 ;
311 [label="X[17] <= 0.01\ngini = 0.209\nsamples = 306\nvalue = [34, 1, 1, 270]"] ;
295 -> 311 ;
312 [label="X[1] <= 144.102\ngini = 0.383\nsamples = 89\nvalue = [23, 0, 0, 66]"] ;
311 -> 312 ;
313 [label="X[2] <= 4.0\ngini = 0.491\nsamples = 23\nvalue = [13, 0, 0, 10]"] ;
312 -> 313 ;
314 [label="X[2] <= 2.5\ngini = 0.469\nsamples = 16\nvalue = [6, 0, 0, 10]"] ;
313 -> 314 ;
315 [label="gini = 0.0\nsamples = 6\nvalue = [6, 0, 0, 0]"] ;
314 -> 315 ;
316 [label="gini = 0.0\nsamples = 10\nvalue = [0, 0, 0, 10]"] ;
314 -> 316 ;
317 [label="gini = 0.0\nsamples = 7\nvalue = [7, 0, 0, 0]"] ;
313 -> 317 ;
318 [label="X[3] <= 10.0\ngini = 0.257\nsamples = 66\nvalue = [10, 0, 0, 56]"] ;
312 -> 318 ;
319 [label="X[4] <= 13.791\ngini = 0.18\nsamples = 60\nvalue = [6, 0, 0, 54]"] ;
318 -> 319 ;
320 [label="gini = 0.0\nsamples = 41\nvalue = [0, 0, 0, 41]"] ;
319 -> 320 ;
321 [label="X[2] <= 2.5\ngini = 0.432\nsamples = 19\nvalue = [6, 0, 0, 13]"] ;
319 -> 321 ;
322 [label="X[13] <= 0.009\ngini = 0.497\nsamples = 13\nvalue = [6, 0, 0, 7]"] ;
321 -> 322 ;
323 [label="gini = 0.0\nsamples = 3\nvalue = [3, 0, 0, 0]"] ;
322 -> 323 ;
324 [label="gini = 0.42\nsamples = 10\nvalue = [3, 0, 0, 7]"] ;
322 -> 324 ;
325 [label="gini = 0.0\nsamples = 6\nvalue = [0, 0, 0, 6]"] ;
321 -> 325 ;
326 [label="X[2] <= 2.5\ngini = 0.444\nsamples = 6\nvalue = [4, 0, 0, 2]"] ;
318 -> 326 ;
327 [label="gini = 0.0\nsamples = 1\nvalue = [0, 0, 0, 1]"] ;
326 -> 327 ;
328 [label="X[2] <= 7.0\ngini = 0.32\nsamples = 5\nvalue = [4, 0, 0, 1]"] ;
326 -> 328 ;
329 [label="gini = 0.0\nsamples = 4\nvalue = [4, 0, 0, 0]"] ;
328 -> 329 ;
330 [label="gini = 0.0\nsamples = 1\nvalue = [0, 0, 0, 1]"] ;
328 -> 330 ;
331 [label="X[7] <= 25.7\ngini = 0.114\nsamples = 217\nvalue = [11, 1, 1, 204]"] ;
311 -> 331 ;
332 [label="gini = 0.0\nsamples = 1\nvalue = [0, 1, 0, 0]"] ;
331 -> 332 ;
333 [label="X[0] <= -37.289\ngini = 0.105\nsamples = 216\nvalue = [11, 0, 1, 204]"] ;
331 -> 333 ;
334 [label="X[9] <= 93.556\ngini = 0.049\nsamples = 161\nvalue = [3, 0, 1, 157]"] ;
333 -> 334 ;
335 [label="X[8] <= 75.016\ngini = 0.026\nsamples = 154\nvalue = [2, 0, 0, 152]"] ;
334 -> 335 ;
336 [label="gini = 0.0\nsamples = 136\nvalue = [0, 0, 0, 136]"] ;
335 -> 336 ;
337 [label="X[3] <= 7.0\ngini = 0.198\nsamples = 18\nvalue = [2, 0, 0, 16]"] ;
335 -> 337 ;
338 [label="gini = 0.0\nsamples = 1\nvalue = [1, 0, 0, 0]"] ;
337 -> 338 ;
339 [label="X[10] <= 287.517\ngini = 0.111\nsamples = 17\nvalue = [1, 0, 0, 16]"] ;
337 -> 339 ;
340 [label="gini = 0.0\nsamples = 1\nvalue = [1, 0, 0, 0]"] ;
339 -> 340 ;
341 [label="gini = 0.0\nsamples = 16\nvalue = [0, 0, 0, 16]"] ;
339 -> 341 ;
342 [label="X[7] <= 99.536\ngini = 0.449\nsamples = 7\nvalue = [1, 0, 1, 5]"] ;
334 -> 342 ;
343 [label="X[3] <= 9.5\ngini = 0.5\nsamples = 2\nvalue = [1, 0, 1, 0]"] ;
342 -> 343 ;
344 [label="gini = 0.0\nsamples = 1\nvalue = [0, 0, 1, 0]"] ;
343 -> 344 ;
345 [label="gini = 0.0\nsamples = 1\nvalue = [1, 0, 0, 0]"] ;
343 -> 345 ;
346 [label="gini = 0.0\nsamples = 5\nvalue = [0, 0, 0, 5]"] ;
342 -> 346 ;
347 [label="X[8] <= 54.911\ngini = 0.249\nsamples = 55\nvalue = [8, 0, 0, 47]"] ;
333 -> 347 ;
348 [label="gini = 0.0\nsamples = 3\nvalue = [3, 0, 0, 0]"] ;
347 -> 348 ;
349 [label="X[0] <= -37.285\ngini = 0.174\nsamples = 52\nvalue = [5, 0, 0, 47]"] ;
347 -> 349 ;
350 [label="gini = 0.0\nsamples = 2\nvalue = [2, 0, 0, 0]"] ;
349 -> 350 ;
351 [label="X[2] <= 6.5\ngini = 0.113\nsamples = 50\nvalue = [3, 0, 0, 47]"] ;
349 -> 351 ;
352 [label="gini = 0.0\nsamples = 35\nvalue = [0, 0, 0, 35]"] ;
351 -> 352 ;
353 [label="X[3] <= 10.0\ngini = 0.32\nsamples = 15\nvalue = [3, 0, 0, 12]"] ;
351 -> 353 ;
354 [label="gini = 0.0\nsamples = 9\nvalue = [0, 0, 0, 9]"] ;
353 -> 354 ;
355 [label="X[2] <= 9.5\ngini = 0.5\nsamples = 6\nvalue = [3, 0, 0, 3]"] ;
353 -> 355 ;
356 [label="gini = 0.0\nsamples = 3\nvalue = [3, 0, 0, 0]"] ;
355 -> 356 ;
357 [label="gini = 0.0\nsamples = 3\nvalue = [0, 0, 0, 3]"] ;
355 -> 357 ;
358 [label="X[2] <= 3.5\ngini = 0.641\nsamples = 64\nvalue = [28, 5, 6, 25]"] ;
294 -> 358 ;
359 [label="X[15] <= 5.5\ngini = 0.592\nsamples = 29\nvalue = [3, 3, 6, 17]"] ;
358 -> 359 ;
360 [label="gini = 0.0\nsamples = 6\nvalue = [0, 0, 6, 0]"] ;
359 -> 360 ;
361 [label="X[20] <= -0.092\ngini = 0.42\nsamples = 23\nvalue = [3, 3, 0, 17]"] ;
359 -> 361 ;
362 [label="X[6] <= 2140.605\ngini = 0.375\nsamples = 4\nvalue = [0, 3, 0, 1]"] ;
361 -> 362 ;
363 [label="gini = 0.0\nsamples = 3\nvalue = [0, 3, 0, 0]"] ;
362 -> 363 ;
364 [label="gini = 0.0\nsamples = 1\nvalue = [0, 0, 0, 1]"] ;
362 -> 364 ;
365 [label="X[6] <= 1874.27\ngini = 0.266\nsamples = 19\nvalue = [3, 0, 0, 16]"] ;
361 -> 365 ;
366 [label="gini = 0.49\nsamples = 7\nvalue = [3, 0, 0, 4]"] ;
365 -> 366 ;
367 [label="gini = 0.0\nsamples = 12\nvalue = [0, 0, 0, 12]"] ;
365 -> 367 ;
368 [label="X[5] <= 1962.393\ngini = 0.434\nsamples = 35\nvalue = [25, 2, 0, 8]"] ;
358 -> 368 ;
369 [label="X[19] <= 106.0\ngini = 0.346\nsamples = 9\nvalue = [0, 2, 0, 7]"] ;
368 -> 369 ;
370 [label="gini = 0.5\nsamples = 4\nvalue = [0, 2, 0, 2]"] ;
369 -> 370 ;
371 [label="gini = 0.0\nsamples = 5\nvalue = [0, 0, 0, 5]"] ;
369 -> 371 ;
372 [label="X[15] <= 64.0\ngini = 0.074\nsamples = 26\nvalue = [25, 0, 0, 1]"] ;
368 -> 372 ;
373 [label="gini = 0.0\nsamples = 25\nvalue = [25, 0, 0, 0]"] ;
372 -> 373 ;
374 [label="gini = 0.0\nsamples = 1\nvalue = [0, 0, 0, 1]"] ;
372 -> 374 ;
375 [label="X[0] <= -37.398\ngini = 0.255\nsamples = 14\nvalue = [12, 0, 1, 1]"] ;
237 -> 375 ;
376 [label="X[12] <= 0.753\ngini = 0.5\nsamples = 2\nvalue = [0, 0, 1, 1]"] ;
375 -> 376 ;
377 [label="gini = 0.0\nsamples = 1\nvalue = [0, 0, 1, 0]"] ;
376 -> 377 ;
378 [label="gini = 0.0\nsamples = 1\nvalue = [0, 0, 0, 1]"] ;
376 -> 378 ;
379 [label="gini = 0.0\nsamples = 12\nvalue = [12, 0, 0, 0]"] ;
375 -> 379 ;
380 [label="X[14] <= 1.681\ngini = 0.037\nsamples = 158\nvalue = [2, 1, 0, 155]"] ;
236 -> 380 ;
381 [label="X[3] <= 5.5\ngini = 0.375\nsamples = 4\nvalue = [0, 1, 0, 3]"] ;
380 -> 381 ;
382 [label="gini = 0.0\nsamples = 1\nvalue = [0, 1, 0, 0]"] ;
381 -> 382 ;
383 [label="gini = 0.0\nsamples = 3\nvalue = [0, 0, 0, 3]"] ;
381 -> 383 ;
384 [label="X[18] <= 18.0\ngini = 0.026\nsamples = 154\nvalue = [2, 0, 0, 152]"] ;
380 -> 384 ;
385 [label="X[11] <= 12.668\ngini = 0.245\nsamples = 7\nvalue = [1, 0, 0, 6]"] ;
384 -> 385 ;
386 [label="gini = 0.0\nsamples = 6\nvalue = [0, 0, 0, 6]"] ;
385 -> 386 ;
387 [label="gini = 0.0\nsamples = 1\nvalue = [1, 0, 0, 0]"] ;
385 -> 387 ;
388 [label="X[17] <= 0.227\ngini = 0.014\nsamples = 147\nvalue = [1, 0, 0, 146]"] ;
384 -> 388 ;
389 [label="gini = 0.0\nsamples = 132\nvalue = [0, 0, 0, 132]"] ;
388 -> 389 ;
390 [label="X[17] <= 0.231\ngini = 0.124\nsamples = 15\nvalue = [1, 0, 0, 14]"] ;
388 -> 390 ;
391 [label="gini = 0.0\nsamples = 1\nvalue = [1, 0, 0, 0]"] ;
390 -> 391 ;
392 [label="gini = 0.0\nsamples = 14\nvalue = [0, 0, 0, 14]"] ;
390 -> 392 ;
393 [label="X[0] <= -37.693\ngini = 0.126\nsamples = 1151\nvalue = [24, 19, 33, 1075]"] ;
235 -> 393 ;
394 [label="X[10] <= 270.298\ngini = 0.364\nsamples = 199\nvalue = [5, 12, 26, 156]"] ;
393 -> 394 ;
395 [label="X[10] <= 234.639\ngini = 0.219\nsamples = 140\nvalue = [0, 12, 5, 123]"] ;
394 -> 395 ;
396 [label="X[4] <= 12.352\ngini = 0.346\nsamples = 9\nvalue = [0, 7, 0, 2]"] ;
395 -> 396 ;
397 [label="gini = 0.32\nsamples = 5\nvalue = [0, 4, 0, 1]"] ;
396 -> 397 ;
398 [label="gini = 0.375\nsamples = 4\nvalue = [0, 3, 0, 1]"] ;
396 -> 398 ;
399 [label="X[8] <= 61.715\ngini = 0.144\nsamples = 131\nvalue = [0, 5, 5, 121]"] ;
395 -> 399 ;
400 [label="X[21] <= 127.2\ngini = 0.54\nsamples = 10\nvalue = [0, 1, 3, 6]"] ;
399 -> 400 ;
401 [label="gini = 0.0\nsamples = 3\nvalue = [0, 0, 3, 0]"] ;
400 -> 401 ;
402 [label="X[0] <= -37.695\ngini = 0.245\nsamples = 7\nvalue = [0, 1, 0, 6]"] ;
400 -> 402 ;
403 [label="gini = 0.0\nsamples = 4\nvalue = [0, 0, 0, 4]"] ;
402 -> 403 ;
404 [label="gini = 0.444\nsamples = 3\nvalue = [0, 1, 0, 2]"] ;
402 -> 404 ;
405 [label="X[2] <= 2.5\ngini = 0.095\nsamples = 121\nvalue = [0, 4, 2, 115]"] ;
399 -> 405 ;
406 [label="X[20] <= -0.525\ngini = 0.375\nsamples = 8\nvalue = [0, 0, 2, 6]"] ;
405 -> 406 ;
407 [label="gini = 0.0\nsamples = 2\nvalue = [0, 0, 2, 0]"] ;
406 -> 407 ;
408 [label="gini = 0.0\nsamples = 6\nvalue = [0, 0, 0, 6]"] ;
406 -> 408 ;
409 [label="X[14] <= 2.558\ngini = 0.068\nsamples = 113\nvalue = [0, 4, 0, 109]"] ;
405 -> 409 ;
410 [label="gini = 0.0\nsamples = 83\nvalue = [0, 0, 0, 83]"] ;
409 -> 410 ;
411 [label="X[21] <= 371.5\ngini = 0.231\nsamples = 30\nvalue = [0, 4, 0, 26]"] ;
409 -> 411 ;
412 [label="gini = 0.5\nsamples = 4\nvalue = [0, 2, 0, 2]"] ;
411 -> 412 ;
413 [label="X[4] <= 13.085\ngini = 0.142\nsamples = 26\nvalue = [0, 2, 0, 24]"] ;
411 -> 413 ;
414 [label="gini = 0.0\nsamples = 18\nvalue = [0, 0, 0, 18]"] ;
413 -> 414 ;
415 [label="X[4] <= 13.586\ngini = 0.375\nsamples = 8\nvalue = [0, 2, 0, 6]"] ;
413 -> 415 ;
416 [label="X[3] <= 6.5\ngini = 0.48\nsamples = 5\nvalue = [0, 2, 0, 3]"] ;
415 -> 416 ;
417 [label="gini = 0.444\nsamples = 3\nvalue = [0, 1, 0, 2]"] ;
416 -> 417 ;
418 [label="gini = 0.5\nsamples = 2\nvalue = [0, 1, 0, 1]"] ;
416 -> 418 ;
419 [label="gini = 0.0\nsamples = 3\nvalue = [0, 0, 0, 3]"] ;
415 -> 419 ;
420 [label="X[2] <= 4.5\ngini = 0.553\nsamples = 59\nvalue = [5, 0, 21, 33]"] ;
394 -> 420 ;
421 [label="X[13] <= 0.013\ngini = 0.436\nsamples = 27\nvalue = [1, 0, 19, 7]"] ;
420 -> 421 ;
422 [label="gini = 0.0\nsamples = 4\nvalue = [0, 0, 0, 4]"] ;
421 -> 422 ;
423 [label="X[12] <= 0.553\ngini = 0.299\nsamples = 23\nvalue = [1, 0, 19, 3]"] ;
421 -> 423 ;
424 [label="X[4] <= 17.684\ngini = 0.177\nsamples = 21\nvalue = [1, 0, 19, 1]"] ;
423 -> 424 ;
425 [label="X[20] <= 0.338\ngini = 0.095\nsamples = 20\nvalue = [1, 0, 19, 0]"] ;
424 -> 425 ;
426 [label="gini = 0.0\nsamples = 17\nvalue = [0, 0, 17, 0]"] ;
425 -> 426 ;
427 [label="X[2] <= 3.5\ngini = 0.444\nsamples = 3\nvalue = [1, 0, 2, 0]"] ;
425 -> 427 ;
428 [label="gini = 0.0\nsamples = 2\nvalue = [0, 0, 2, 0]"] ;
427 -> 428 ;
429 [label="gini = 0.0\nsamples = 1\nvalue = [1, 0, 0, 0]"] ;
427 -> 429 ;
430 [label="gini = 0.0\nsamples = 1\nvalue = [0, 0, 0, 1]"] ;
424 -> 430 ;
431 [label="gini = 0.0\nsamples = 2\nvalue = [0, 0, 0, 2]"] ;
423 -> 431 ;
432 [label="X[14] <= 0.64\ngini = 0.32\nsamples = 32\nvalue = [4, 0, 2, 26]"] ;
420 -> 432 ;
433 [label="gini = 0.0\nsamples = 1\nvalue = [0, 0, 1, 0]"] ;
432 -> 433 ;
434 [label="X[5] <= 2005.648\ngini = 0.279\nsamples = 31\nvalue = [4, 0, 1, 26]"] ;
432 -> 434 ;
435 [label="X[7] <= 52.326\ngini = 0.568\nsamples = 9\nvalue = [3, 0, 1, 5]"] ;
434 -> 435 ;
436 [label="gini = 0.0\nsamples = 5\nvalue = [0, 0, 0, 5]"] ;
435 -> 436 ;
437 [label="X[14] <= 1.871\ngini = 0.375\nsamples = 4\nvalue = [3, 0, 1, 0]"] ;
435 -> 437 ;
438 [label="gini = 0.0\nsamples = 1\nvalue = [0, 0, 1, 0]"] ;
437 -> 438 ;
439 [label="gini = 0.0\nsamples = 3\nvalue = [3, 0, 0, 0]"] ;
437 -> 439 ;
440 [label="X[11] <= 8.895\ngini = 0.087\nsamples = 22\nvalue = [1, 0, 0, 21]"] ;
434 -> 440 ;
441 [label="gini = 0.0\nsamples = 18\nvalue = [0, 0, 0, 18]"] ;
440 -> 441 ;
442 [label="X[21] <= 105.7\ngini = 0.375\nsamples = 4\nvalue = [1, 0, 0, 3]"] ;
440 -> 442 ;
443 [label="gini = 0.0\nsamples = 1\nvalue = [1, 0, 0, 0]"] ;
442 -> 443 ;
444 [label="gini = 0.0\nsamples = 3\nvalue = [0, 0, 0, 3]"] ;
442 -> 444 ;
445 [label="X[1] <= 146.015\ngini = 0.068\nsamples = 952\nvalue = [19, 7, 7, 919]"] ;
393 -> 445 ;
446 [label="X[1] <= 146.009\ngini = 0.216\nsamples = 193\nvalue = [16, 0, 7, 170]"] ;
445 -> 446 ;
447 [label="X[13] <= 0.079\ngini = 0.192\nsamples = 190\nvalue = [16, 0, 4, 170]"] ;
446 -> 447 ;
448 [label="X[12] <= 0.216\ngini = 0.061\nsamples = 127\nvalue = [4, 0, 0, 123]"] ;
447 -> 448 ;
449 [label="gini = 0.0\nsamples = 1\nvalue = [1, 0, 0, 0]"] ;
448 -> 449 ;
450 [label="X[0] <= -37.347\ngini = 0.046\nsamples = 126\nvalue = [3, 0, 0, 123]"] ;
448 -> 450 ;
451 [label="gini = 0.0\nsamples = 88\nvalue = [0, 0, 0, 88]"] ;
450 -> 451 ;
452 [label="X[12] <= 0.594\ngini = 0.145\nsamples = 38\nvalue = [3, 0, 0, 35]"] ;
450 -> 452 ;
453 [label="gini = 0.0\nsamples = 2\nvalue = [2, 0, 0, 0]"] ;
452 -> 453 ;
454 [label="X[6] <= 1978.524\ngini = 0.054\nsamples = 36\nvalue = [1, 0, 0, 35]"] ;
452 -> 454 ;
455 [label="gini = 0.0\nsamples = 1\nvalue = [1, 0, 0, 0]"] ;
454 -> 455 ;
456 [label="gini = 0.0\nsamples = 35\nvalue = [0, 0, 0, 35]"] ;
454 -> 456 ;
457 [label="X[4] <= 13.124\ngini = 0.403\nsamples = 63\nvalue = [12, 0, 4, 47]"] ;
447 -> 457 ;
458 [label="X[11] <= 5.842\ngini = 0.188\nsamples = 39\nvalue = [3, 0, 1, 35]"] ;
457 -> 458 ;
459 [label="gini = 0.0\nsamples = 2\nvalue = [2, 0, 0, 0]"] ;
458 -> 459 ;
460 [label="X[11] <= 11.981\ngini = 0.104\nsamples = 37\nvalue = [1, 0, 1, 35]"] ;
458 -> 460 ;
461 [label="X[11] <= 11.617\ngini = 0.054\nsamples = 36\nvalue = [0, 0, 1, 35]"] ;
460 -> 461 ;
462 [label="gini = 0.0\nsamples = 34\nvalue = [0, 0, 0, 34]"] ;
461 -> 462 ;
463 [label="X[6] <= 2332.88\ngini = 0.5\nsamples = 2\nvalue = [0, 0, 1, 1]"] ;
461 -> 463 ;
464 [label="gini = 0.0\nsamples = 1\nvalue = [0, 0, 1, 0]"] ;
463 -> 464 ;
465 [label="gini = 0.0\nsamples = 1\nvalue = [0, 0, 0, 1]"] ;
463 -> 465 ;
466 [label="gini = 0.0\nsamples = 1\nvalue = [1, 0, 0, 0]"] ;
460 -> 466 ;
467 [label="X[17] <= 0.154\ngini = 0.594\nsamples = 24\nvalue = [9, 0, 3, 12]"] ;
457 -> 467 ;
468 [label="X[0] <= -37.531\ngini = 0.397\nsamples = 11\nvalue = [8, 0, 0, 3]"] ;
467 -> 468 ;
469 [label="gini = 0.0\nsamples = 2\nvalue = [0, 0, 0, 2]"] ;
468 -> 469 ;
470 [label="X[17] <= 0.036\ngini = 0.198\nsamples = 9\nvalue = [8, 0, 0, 1]"] ;
468 -> 470 ;
471 [label="gini = 0.0\nsamples = 1\nvalue = [0, 0, 0, 1]"] ;
470 -> 471 ;
472 [label="gini = 0.0\nsamples = 8\nvalue = [8, 0, 0, 0]"] ;
470 -> 472 ;
473 [label="X[2] <= 26.0\ngini = 0.462\nsamples = 13\nvalue = [1, 0, 3, 9]"] ;
467 -> 473 ;
474 [label="X[6] <= 2234.603\ngini = 0.314\nsamples = 11\nvalue = [1, 0, 1, 9]"] ;
473 -> 474 ;
475 [label="X[7] <= 164.787\ngini = 0.18\nsamples = 10\nvalue = [1, 0, 0, 9]"] ;
474 -> 475 ;
476 [label="gini = 0.0\nsamples = 9\nvalue = [0, 0, 0, 9]"] ;
475 -> 476 ;
477 [label="gini = 0.0\nsamples = 1\nvalue = [1, 0, 0, 0]"] ;
475 -> 477 ;
478 [label="gini = 0.0\nsamples = 1\nvalue = [0, 0, 1, 0]"] ;
474 -> 478 ;
479 [label="gini = 0.0\nsamples = 2\nvalue = [0, 0, 2, 0]"] ;
473 -> 479 ;
480 [label="gini = 0.0\nsamples = 3\nvalue = [0, 0, 3, 0]"] ;
446 -> 480 ;
481 [label="X[7] <= 29.196\ngini = 0.026\nsamples = 759\nvalue = [3, 7, 0, 749]"] ;
445 -> 481 ;
482 [label="X[17] <= 0.121\ngini = 0.346\nsamples = 18\nvalue = [0, 4, 0, 14]"] ;
481 -> 482 ;
483 [label="X[2] <= 14.5\ngini = 0.494\nsamples = 9\nvalue = [0, 4, 0, 5]"] ;
482 -> 483 ;
484 [label="X[0] <= -37.479\ngini = 0.32\nsamples = 5\nvalue = [0, 1, 0, 4]"] ;
483 -> 484 ;
485 [label="gini = 0.0\nsamples = 2\nvalue = [0, 0, 0, 2]"] ;
484 -> 485 ;
486 [label="gini = 0.444\nsamples = 3\nvalue = [0, 1, 0, 2]"] ;
484 -> 486 ;
487 [label="X[5] <= 1920.731\ngini = 0.375\nsamples = 4\nvalue = [0, 3, 0, 1]"] ;
483 -> 487 ;
488 [label="gini = 0.0\nsamples = 1\nvalue = [0, 1, 0, 0]"] ;
487 -> 488 ;
489 [label="gini = 0.444\nsamples = 3\nvalue = [0, 2, 0, 1]"] ;
487 -> 489 ;
490 [label="gini = 0.0\nsamples = 9\nvalue = [0, 0, 0, 9]"] ;
482 -> 490 ;
491 [label="X[13] <= 0.147\ngini = 0.016\nsamples = 741\nvalue = [3, 3, 0, 735]"] ;
481 -> 491 ;
492 [label="X[16] <= 101.0\ngini = 0.009\nsamples = 680\nvalue = [1, 2, 0, 677]"] ;
491 -> 492 ;
493 [label="X[12] <= 0.233\ngini = 0.006\nsamples = 654\nvalue = [1, 1, 0, 652]"] ;
492 -> 493 ;
494 [label="X[12] <= 0.232\ngini = 0.054\nsamples = 36\nvalue = [1, 0, 0, 35]"] ;
493 -> 494 ;
495 [label="gini = 0.0\nsamples = 35\nvalue = [0, 0, 0, 35]"] ;
494 -> 495 ;
496 [label="gini = 0.0\nsamples = 1\nvalue = [1, 0, 0, 0]"] ;
494 -> 496 ;
497 [label="X[1] <= 146.204\ngini = 0.003\nsamples = 618\nvalue = [0, 1, 0, 617]"] ;
493 -> 497 ;
498 [label="X[1] <= 146.193\ngini = 0.053\nsamples = 37\nvalue = [0, 1, 0, 36]"] ;
497 -> 498 ;
499 [label="gini = 0.0\nsamples = 36\nvalue = [0, 0, 0, 36]"] ;
498 -> 499 ;
500 [label="gini = 0.0\nsamples = 1\nvalue = [0, 1, 0, 0]"] ;
498 -> 500 ;
501 [label="gini = 0.0\nsamples = 581\nvalue = [0, 0, 0, 581]"] ;
497 -> 501 ;
502 [label="X[11] <= 9.1\ngini = 0.074\nsamples = 26\nvalue = [0, 1, 0, 25]"] ;
492 -> 502 ;
503 [label="gini = 0.444\nsamples = 3\nvalue = [0, 1, 0, 2]"] ;
502 -> 503 ;
504 [label="gini = 0.0\nsamples = 23\nvalue = [0, 0, 0, 23]"] ;
502 -> 504 ;
505 [label="X[19] <= 66.0\ngini = 0.095\nsamples = 61\nvalue = [2, 1, 0, 58]"] ;
491 -> 505 ;
506 [label="gini = 0.0\nsamples = 2\nvalue = [2, 0, 0, 0]"] ;
505 -> 506 ;
507 [label="X[13] <= 0.149\ngini = 0.033\nsamples = 59\nvalue = [0, 1, 0, 58]"] ;
505 -> 507 ;
508 [label="gini = 0.0\nsamples = 1\nvalue = [0, 1, 0, 0]"] ;
507 -> 508 ;
509 [label="gini = 0.0\nsamples = 58\nvalue = [0, 0, 0, 58]"] ;
507 -> 509 ;
510 [label="X[14] <= 2.809\ngini = 0.093\nsamples = 3517\nvalue = [35, 52, 82, 3348]"] ;
234 -> 510 ;
511 [label="X[10] <= 304.355\ngini = 0.048\nsamples = 2683\nvalue = [15, 35, 16, 2617]"] ;
510 -> 511 ;
512 [label="X[0] <= -36.978\ngini = 0.047\nsamples = 2679\nvalue = [15, 33, 16, 2615]"] ;
511 -> 512 ;
513 [label="X[9] <= 43.831\ngini = 0.046\nsamples = 2678\nvalue = [15, 32, 16, 2615]"] ;
512 -> 513 ;
514 [label="X[9] <= 43.8\ngini = 0.081\nsamples = 765\nvalue = [1, 24, 7, 733]"] ;
513 -> 514 ;
515 [label="X[8] <= 98.595\ngini = 0.076\nsamples = 763\nvalue = [1, 24, 5, 733]"] ;
514 -> 515 ;
516 [label="X[20] <= -0.172\ngini = 0.074\nsamples = 762\nvalue = [1, 23, 5, 733]"] ;
515 -> 516 ;
517 [label="X[0] <= -38.386\ngini = 0.185\nsamples = 157\nvalue = [0, 14, 2, 141]"] ;
516 -> 517 ;
518 [label="X[0] <= -38.39\ngini = 0.403\nsamples = 25\nvalue = [0, 7, 0, 18]"] ;
517 -> 518 ;
519 [label="X[1] <= 144.216\ngini = 0.298\nsamples = 22\nvalue = [0, 4, 0, 18]"] ;
518 -> 519 ;
520 [label="gini = 0.0\nsamples = 14\nvalue = [0, 0, 0, 14]"] ;
519 -> 520 ;
521 [label="X[2] <= 19.0\ngini = 0.5\nsamples = 8\nvalue = [0, 4, 0, 4]"] ;
519 -> 521 ;
522 [label="X[14] <= 2.047\ngini = 0.444\nsamples = 6\nvalue = [0, 4, 0, 2]"] ;
521 -> 522 ;
523 [label="gini = 0.0\nsamples = 2\nvalue = [0, 2, 0, 0]"] ;
522 -> 523 ;
524 [label="gini = 0.5\nsamples = 4\nvalue = [0, 2, 0, 2]"] ;
522 -> 524 ;
525 [label="gini = 0.0\nsamples = 2\nvalue = [0, 0, 0, 2]"] ;
521 -> 525 ;
526 [label="gini = 0.0\nsamples = 3\nvalue = [0, 3, 0, 0]"] ;
518 -> 526 ;
527 [label="X[9] <= 17.312\ngini = 0.129\nsamples = 132\nvalue = [0, 7, 2, 123]"] ;
517 -> 527 ;
528 [label="X[13] <= 0.034\ngini = 0.48\nsamples = 5\nvalue = [0, 0, 2, 3]"] ;
527 -> 528 ;
529 [label="gini = 0.0\nsamples = 2\nvalue = [0, 0, 2, 0]"] ;
528 -> 529 ;
530 [label="gini = 0.0\nsamples = 3\nvalue = [0, 0, 0, 3]"] ;
528 -> 530 ;
531 [label="X[11] <= 2.686\ngini = 0.104\nsamples = 127\nvalue = [0, 7, 0, 120]"] ;
527 -> 531 ;
532 [label="X[1] <= 146.814\ngini = 0.346\nsamples = 18\nvalue = [0, 4, 0, 14]"] ;
531 -> 532 ;
533 [label="X[2] <= 7.5\ngini = 0.48\nsamples = 10\nvalue = [0, 4, 0, 6]"] ;
532 -> 533 ;
534 [label="gini = 0.444\nsamples = 6\nvalue = [0, 2, 0, 4]"] ;
533 -> 534 ;
535 [label="gini = 0.5\nsamples = 4\nvalue = [0, 2, 0, 2]"] ;
533 -> 535 ;
536 [label="gini = 0.0\nsamples = 8\nvalue = [0, 0, 0, 8]"] ;
532 -> 536 ;
537 [label="X[11] <= 12.82\ngini = 0.054\nsamples = 109\nvalue = [0, 3, 0, 106]"] ;
531 -> 537 ;
538 [label="X[1] <= 143.895\ngini = 0.037\nsamples = 107\nvalue = [0, 2, 0, 105]"] ;
537 -> 538 ;
539 [label="gini = 0.444\nsamples = 3\nvalue = [0, 1, 0, 2]"] ;
538 -> 539 ;
540 [label="X[11] <= 4.533\ngini = 0.019\nsamples = 104\nvalue = [0, 1, 0, 103]"] ;
538 -> 540 ;
541 [label="X[14] <= 2.295\ngini = 0.133\nsamples = 14\nvalue = [0, 1, 0, 13]"] ;
540 -> 541 ;
542 [label="gini = 0.0\nsamples = 11\nvalue = [0, 0, 0, 11]"] ;
541 -> 542 ;
543 [label="gini = 0.444\nsamples = 3\nvalue = [0, 1, 0, 2]"] ;
541 -> 543 ;
544 [label="gini = 0.0\nsamples = 90\nvalue = [0, 0, 0, 90]"] ;
540 -> 544 ;
545 [label="gini = 0.5\nsamples = 2\nvalue = [0, 1, 0, 1]"] ;
537 -> 545 ;
546 [label="X[19] <= 13.0\ngini = 0.042\nsamples = 605\nvalue = [1, 9, 3, 592]"] ;
516 -> 546 ;
547 [label="gini = 0.0\nsamples = 1\nvalue = [1, 0, 0, 0]"] ;
546 -> 547 ;
548 [label="X[19] <= 150.0\ngini = 0.039\nsamples = 604\nvalue = [0, 9, 3, 592]"] ;
546 -> 548 ;
549 [label="X[21] <= 523.8\ngini = 0.03\nsamples = 590\nvalue = [0, 9, 0, 581]"] ;
548 -> 549 ;
550 [label="X[18] <= 6.5\ngini = 0.024\nsamples = 582\nvalue = [0, 7, 0, 575]"] ;
549 -> 550 ;
551 [label="X[7] <= 24.687\ngini = 0.375\nsamples = 4\nvalue = [0, 1, 0, 3]"] ;
550 -> 551 ;
552 [label="gini = 0.444\nsamples = 3\nvalue = [0, 1, 0, 2]"] ;
551 -> 552 ;
553 [label="gini = 0.0\nsamples = 1\nvalue = [0, 0, 0, 1]"] ;
551 -> 553 ;
554 [label="X[9] <= 41.1\ngini = 0.021\nsamples = 578\nvalue = [0, 6, 0, 572]"] ;
550 -> 554 ;
555 [label="X[0] <= -38.467\ngini = 0.008\nsamples = 506\nvalue = [0, 2, 0, 504]"] ;
554 -> 555 ;
556 [label="X[1] <= 146.758\ngini = 0.278\nsamples = 6\nvalue = [0, 1, 0, 5]"] ;
555 -> 556 ;
557 [label="gini = 0.444\nsamples = 3\nvalue = [0, 1, 0, 2]"] ;
556 -> 557 ;
558 [label="gini = 0.0\nsamples = 3\nvalue = [0, 0, 0, 3]"] ;
556 -> 558 ;
559 [label="X[1] <= 143.783\ngini = 0.004\nsamples = 500\nvalue = [0, 1, 0, 499]"] ;
555 -> 559 ;
560 [label="X[21] <= 388.6\ngini = 0.1\nsamples = 19\nvalue = [0, 1, 0, 18]"] ;
559 -> 560 ;
561 [label="gini = 0.0\nsamples = 16\nvalue = [0, 0, 0, 16]"] ;
560 -> 561 ;
562 [label="X[2] <= 4.0\ngini = 0.444\nsamples = 3\nvalue = [0, 1, 0, 2]"] ;
560 -> 562 ;
563 [label="gini = 0.0\nsamples = 2\nvalue = [0, 0, 0, 2]"] ;
562 -> 563 ;
564 [label="gini = 0.0\nsamples = 1\nvalue = [0, 1, 0, 0]"] ;
562 -> 564 ;
565 [label="gini = 0.0\nsamples = 481\nvalue = [0, 0, 0, 481]"] ;
559 -> 565 ;
566 [label="X[7] <= 41.191\ngini = 0.105\nsamples = 72\nvalue = [0, 4, 0, 68]"] ;
554 -> 566 ;
567 [label="gini = 0.0\nsamples = 2\nvalue = [0, 2, 0, 0]"] ;
566 -> 567 ;
568 [label="X[12] <= 0.162\ngini = 0.056\nsamples = 70\nvalue = [0, 2, 0, 68]"] ;
566 -> 568 ;
569 [label="X[19] <= 120.0\ngini = 0.32\nsamples = 5\nvalue = [0, 1, 0, 4]"] ;
568 -> 569 ;
570 [label="gini = 0.444\nsamples = 3\nvalue = [0, 1, 0, 2]"] ;
569 -> 570 ;
571 [label="gini = 0.0\nsamples = 2\nvalue = [0, 0, 0, 2]"] ;
569 -> 571 ;
572 [label="X[4] <= 11.99\ngini = 0.03\nsamples = 65\nvalue = [0, 1, 0, 64]"] ;
568 -> 572 ;
573 [label="X[16] <= 122.0\ngini = 0.153\nsamples = 12\nvalue = [0, 1, 0, 11]"] ;
572 -> 573 ;
574 [label="gini = 0.0\nsamples = 9\nvalue = [0, 0, 0, 9]"] ;
573 -> 574 ;
575 [label="gini = 0.444\nsamples = 3\nvalue = [0, 1, 0, 2]"] ;
573 -> 575 ;
576 [label="gini = 0.0\nsamples = 53\nvalue = [0, 0, 0, 53]"] ;
572 -> 576 ;
577 [label="X[11] <= 10.647\ngini = 0.375\nsamples = 8\nvalue = [0, 2, 0, 6]"] ;
549 -> 577 ;
578 [label="gini = 0.0\nsamples = 3\nvalue = [0, 0, 0, 3]"] ;
577 -> 578 ;
579 [label="X[16] <= 111.5\ngini = 0.48\nsamples = 5\nvalue = [0, 2, 0, 3]"] ;
577 -> 579 ;
580 [label="gini = 0.5\nsamples = 2\nvalue = [0, 1, 0, 1]"] ;
579 -> 580 ;
581 [label="gini = 0.444\nsamples = 3\nvalue = [0, 1, 0, 2]"] ;
579 -> 581 ;
582 [label="X[11] <= 2.781\ngini = 0.337\nsamples = 14\nvalue = [0, 0, 3, 11]"] ;
548 -> 582 ;
583 [label="X[1] <= 147.161\ngini = 0.375\nsamples = 4\nvalue = [0, 0, 3, 1]"] ;
582 -> 583 ;
584 [label="gini = 0.0\nsamples = 3\nvalue = [0, 0, 3, 0]"] ;
583 -> 584 ;
585 [label="gini = 0.0\nsamples = 1\nvalue = [0, 0, 0, 1]"] ;
583 -> 585 ;
586 [label="gini = 0.0\nsamples = 10\nvalue = [0, 0, 0, 10]"] ;
582 -> 586 ;
587 [label="gini = 0.0\nsamples = 1\nvalue = [0, 1, 0, 0]"] ;
515 -> 587 ;
588 [label="gini = 0.0\nsamples = 2\nvalue = [0, 0, 2, 0]"] ;
514 -> 588 ;
589 [label="X[18] <= 63.5\ngini = 0.032\nsamples = 1913\nvalue = [14, 8, 9, 1882]"] ;
513 -> 589 ;
590 [label="X[0] <= -37.801\ngini = 0.026\nsamples = 1824\nvalue = [14, 7, 3, 1800]"] ;
589 -> 590 ;
591 [label="X[2] <= 88.5\ngini = 0.013\nsamples = 1328\nvalue = [0, 7, 2, 1319]"] ;
590 -> 591 ;
592 [label="X[8] <= 53.462\ngini = 0.011\nsamples = 1298\nvalue = [0, 5, 2, 1291]"] ;
591 -> 592 ;
593 [label="X[9] <= 113.835\ngini = 0.062\nsamples = 62\nvalue = [0, 0, 2, 60]"] ;
592 -> 593 ;
594 [label="X[13] <= 0.138\ngini = 0.032\nsamples = 61\nvalue = [0, 0, 1, 60]"] ;
593 -> 594 ;
595 [label="gini = 0.0\nsamples = 60\nvalue = [0, 0, 0, 60]"] ;
594 -> 595 ;
596 [label="gini = 0.0\nsamples = 1\nvalue = [0, 0, 1, 0]"] ;
594 -> 596 ;
597 [label="gini = 0.0\nsamples = 1\nvalue = [0, 0, 1, 0]"] ;
593 -> 597 ;
598 [label="X[13] <= 0.002\ngini = 0.008\nsamples = 1236\nvalue = [0, 5, 0, 1231]"] ;
592 -> 598 ;
599 [label="X[4] <= 16.743\ngini = 0.117\nsamples = 16\nvalue = [0, 1, 0, 15]"] ;
598 -> 599 ;
600 [label="gini = 0.0\nsamples = 15\nvalue = [0, 0, 0, 15]"] ;
599 -> 600 ;
601 [label="gini = 0.0\nsamples = 1\nvalue = [0, 1, 0, 0]"] ;
599 -> 601 ;
602 [label="X[7] <= 141.793\ngini = 0.007\nsamples = 1220\nvalue = [0, 4, 0, 1216]"] ;
598 -> 602 ;
603 [label="X[1] <= 141.679\ngini = 0.005\nsamples = 1188\nvalue = [0, 3, 0, 1185]"] ;
602 -> 603 ;
604 [label="X[1] <= 141.676\ngini = 0.022\nsamples = 182\nvalue = [0, 2, 0, 180]"] ;
603 -> 604 ;
605 [label="X[17] <= 0.034\ngini = 0.011\nsamples = 181\nvalue = [0, 1, 0, 180]"] ;
604 -> 605 ;
606 [label="X[17] <= 0.032\ngini = 0.198\nsamples = 9\nvalue = [0, 1, 0, 8]"] ;
605 -> 606 ;
607 [label="gini = 0.0\nsamples = 6\nvalue = [0, 0, 0, 6]"] ;
606 -> 607 ;
608 [label="gini = 0.444\nsamples = 3\nvalue = [0, 1, 0, 2]"] ;
606 -> 608 ;
609 [label="gini = 0.0\nsamples = 172\nvalue = [0, 0, 0, 172]"] ;
605 -> 609 ;
610 [label="gini = 0.0\nsamples = 1\nvalue = [0, 1, 0, 0]"] ;
604 -> 610 ;
611 [label="X[10] <= 246.433\ngini = 0.002\nsamples = 1006\nvalue = [0, 1, 0, 1005]"] ;
603 -> 611 ;
612 [label="X[10] <= 246.318\ngini = 0.012\nsamples = 171\nvalue = [0, 1, 0, 170]"] ;
611 -> 612 ;
613 [label="gini = 0.0\nsamples = 170\nvalue = [0, 0, 0, 170]"] ;
612 -> 613 ;
614 [label="gini = 0.0\nsamples = 1\nvalue = [0, 1, 0, 0]"] ;
612 -> 614 ;
615 [label="gini = 0.0\nsamples = 835\nvalue = [0, 0, 0, 835]"] ;
611 -> 615 ;
616 [label="X[0] <= -38.615\ngini = 0.061\nsamples = 32\nvalue = [0, 1, 0, 31]"] ;
602 -> 616 ;
617 [label="gini = 0.0\nsamples = 31\nvalue = [0, 0, 0, 31]"] ;
616 -> 617 ;
618 [label="gini = 0.0\nsamples = 1\nvalue = [0, 1, 0, 0]"] ;
616 -> 618 ;
619 [label="X[2] <= 89.5\ngini = 0.124\nsamples = 30\nvalue = [0, 2, 0, 28]"] ;
591 -> 619 ;
620 [label="gini = 0.0\nsamples = 1\nvalue = [0, 1, 0, 0]"] ;
619 -> 620 ;
621 [label="X[20] <= -0.742\ngini = 0.067\nsamples = 29\nvalue = [0, 1, 0, 28]"] ;
619 -> 621 ;
622 [label="X[2] <= 117.0\ngini = 0.5\nsamples = 2\nvalue = [0, 1, 0, 1]"] ;
621 -> 622 ;
623 [label="gini = 0.0\nsamples = 1\nvalue = [0, 0, 0, 1]"] ;
622 -> 623 ;
624 [label="gini = 0.0\nsamples = 1\nvalue = [0, 1, 0, 0]"] ;
622 -> 624 ;
625 [label="gini = 0.0\nsamples = 27\nvalue = [0, 0, 0, 27]"] ;
621 -> 625 ;
626 [label="X[1] <= 141.436\ngini = 0.059\nsamples = 496\nvalue = [14, 0, 1, 481]"] ;
590 -> 626 ;
627 [label="gini = 0.0\nsamples = 4\nvalue = [4, 0, 0, 0]"] ;
626 -> 627 ;
628 [label="X[0] <= -37.796\ngini = 0.044\nsamples = 492\nvalue = [10, 0, 1, 481]"] ;
626 -> 628 ;
629 [label="X[11] <= 10.519\ngini = 0.444\nsamples = 3\nvalue = [2, 0, 0, 1]"] ;
628 -> 629 ;
630 [label="gini = 0.0\nsamples = 2\nvalue = [2, 0, 0, 0]"] ;
629 -> 630 ;
631 [label="gini = 0.0\nsamples = 1\nvalue = [0, 0, 0, 1]"] ;
629 -> 631 ;
632 [label="X[17] <= 0.008\ngini = 0.036\nsamples = 489\nvalue = [8, 0, 1, 480]"] ;
628 -> 632 ;
633 [label="X[17] <= 0.008\ngini = 0.149\nsamples = 37\nvalue = [3, 0, 0, 34]"] ;
632 -> 633 ;
634 [label="X[11] <= 12.866\ngini = 0.105\nsamples = 36\nvalue = [2, 0, 0, 34]"] ;
633 -> 634 ;
635 [label="X[12] <= 0.692\ngini = 0.056\nsamples = 35\nvalue = [1, 0, 0, 34]"] ;
634 -> 635 ;
636 [label="X[6] <= 1911.298\ngini = 0.444\nsamples = 3\nvalue = [1, 0, 0, 2]"] ;
635 -> 636 ;
637 [label="gini = 0.0\nsamples = 2\nvalue = [0, 0, 0, 2]"] ;
636 -> 637 ;
638 [label="gini = 0.0\nsamples = 1\nvalue = [1, 0, 0, 0]"] ;
636 -> 638 ;
639 [label="gini = 0.0\nsamples = 32\nvalue = [0, 0, 0, 32]"] ;
635 -> 639 ;
640 [label="gini = 0.0\nsamples = 1\nvalue = [1, 0, 0, 0]"] ;
634 -> 640 ;
641 [label="gini = 0.0\nsamples = 1\nvalue = [1, 0, 0, 0]"] ;
633 -> 641 ;
642 [label="X[0] <= -37.57\ngini = 0.026\nsamples = 452\nvalue = [5, 0, 1, 446]"] ;
632 -> 642 ;
643 [label="X[0] <= -37.585\ngini = 0.115\nsamples = 66\nvalue = [3, 0, 1, 62]"] ;
642 -> 643 ;
644 [label="X[7] <= 46.667\ngini = 0.032\nsamples = 61\nvalue = [0, 0, 1, 60]"] ;
643 -> 644 ;
645 [label="X[21] <= 318.1\ngini = 0.5\nsamples = 2\nvalue = [0, 0, 1, 1]"] ;
644 -> 645 ;
646 [label="gini = 0.0\nsamples = 1\nvalue = [0, 0, 0, 1]"] ;
645 -> 646 ;
647 [label="gini = 0.0\nsamples = 1\nvalue = [0, 0, 1, 0]"] ;
645 -> 647 ;
648 [label="gini = 0.0\nsamples = 59\nvalue = [0, 0, 0, 59]"] ;
644 -> 648 ;
649 [label="X[6] <= 2130.628\ngini = 0.48\nsamples = 5\nvalue = [3, 0, 0, 2]"] ;
643 -> 649 ;
650 [label="gini = 0.0\nsamples = 3\nvalue = [3, 0, 0, 0]"] ;
649 -> 650 ;
651 [label="gini = 0.0\nsamples = 2\nvalue = [0, 0, 0, 2]"] ;
649 -> 651 ;
652 [label="X[0] <= -37.333\ngini = 0.01\nsamples = 386\nvalue = [2, 0, 0, 384]"] ;
642 -> 652 ;
653 [label="gini = 0.0\nsamples = 346\nvalue = [0, 0, 0, 346]"] ;
652 -> 653 ;
654 [label="X[0] <= -37.332\ngini = 0.095\nsamples = 40\nvalue = [2, 0, 0, 38]"] ;
652 -> 654 ;
655 [label="gini = 0.0\nsamples = 1\nvalue = [1, 0, 0, 0]"] ;
654 -> 655 ;
656 [label="X[19] <= 13.0\ngini = 0.05\nsamples = 39\nvalue = [1, 0, 0, 38]"] ;
654 -> 656 ;
657 [label="X[14] <= 2.658\ngini = 0.375\nsamples = 4\nvalue = [1, 0, 0, 3]"] ;
656 -> 657 ;
658 [label="gini = 0.0\nsamples = 3\nvalue = [0, 0, 0, 3]"] ;
657 -> 658 ;
659 [label="gini = 0.0\nsamples = 1\nvalue = [1, 0, 0, 0]"] ;
657 -> 659 ;
660 [label="gini = 0.0\nsamples = 35\nvalue = [0, 0, 0, 35]"] ;
656 -> 660 ;
661 [label="X[6] <= 2468.187\ngini = 0.146\nsamples = 89\nvalue = [0, 1, 6, 82]"] ;
589 -> 661 ;
662 [label="X[13] <= 0.171\ngini = 0.108\nsamples = 87\nvalue = [0, 0, 5, 82]"] ;
661 -> 662 ;
663 [label="X[20] <= 4.979\ngini = 0.089\nsamples = 86\nvalue = [0, 0, 4, 82]"] ;
662 -> 663 ;
664 [label="X[13] <= 0.12\ngini = 0.068\nsamples = 85\nvalue = [0, 0, 3, 82]"] ;
663 -> 664 ;
665 [label="X[13] <= 0.041\ngini = 0.026\nsamples = 75\nvalue = [0, 0, 1, 74]"] ;
664 -> 665 ;
666 [label="X[16] <= 126.5\ngini = 0.245\nsamples = 7\nvalue = [0, 0, 1, 6]"] ;
665 -> 666 ;
667 [label="gini = 0.0\nsamples = 1\nvalue = [0, 0, 1, 0]"] ;
666 -> 667 ;
668 [label="gini = 0.0\nsamples = 6\nvalue = [0, 0, 0, 6]"] ;
666 -> 668 ;
669 [label="gini = 0.0\nsamples = 68\nvalue = [0, 0, 0, 68]"] ;
665 -> 669 ;
670 [label="X[0] <= -37.804\ngini = 0.32\nsamples = 10\nvalue = [0, 0, 2, 8]"] ;
664 -> 670 ;
671 [label="X[7] <= 97.479\ngini = 0.444\nsamples = 3\nvalue = [0, 0, 2, 1]"] ;
670 -> 671 ;
672 [label="gini = 0.0\nsamples = 1\nvalue = [0, 0, 0, 1]"] ;
671 -> 672 ;
673 [label="gini = 0.0\nsamples = 2\nvalue = [0, 0, 2, 0]"] ;
671 -> 673 ;
674 [label="gini = 0.0\nsamples = 7\nvalue = [0, 0, 0, 7]"] ;
670 -> 674 ;
675 [label="gini = 0.0\nsamples = 1\nvalue = [0, 0, 1, 0]"] ;
663 -> 675 ;
676 [label="gini = 0.0\nsamples = 1\nvalue = [0, 0, 1, 0]"] ;
662 -> 676 ;
677 [label="X[16] <= 121.0\ngini = 0.5\nsamples = 2\nvalue = [0, 1, 1, 0]"] ;
661 -> 677 ;
678 [label="gini = 0.0\nsamples = 1\nvalue = [0, 1, 0, 0]"] ;
677 -> 678 ;
679 [label="gini = 0.0\nsamples = 1\nvalue = [0, 0, 1, 0]"] ;
677 -> 679 ;
680 [label="gini = 0.0\nsamples = 1\nvalue = [0, 1, 0, 0]"] ;
512 -> 680 ;
681 [label="X[7] <= 31.823\ngini = 0.5\nsamples = 4\nvalue = [0, 2, 0, 2]"] ;
511 -> 681 ;
682 [label="gini = 0.444\nsamples = 3\nvalue = [0, 2, 0, 1]"] ;
681 -> 682 ;
683 [label="gini = 0.0\nsamples = 1\nvalue = [0, 0, 0, 1]"] ;
681 -> 683 ;
684 [label="X[0] <= -37.744\ngini = 0.224\nsamples = 834\nvalue = [20, 17, 66, 731]"] ;
510 -> 684 ;
685 [label="X[0] <= -37.875\ngini = 0.361\nsamples = 300\nvalue = [10, 1, 56, 233]"] ;
684 -> 685 ;
686 [label="X[21] <= 715.5\ngini = 0.018\nsamples = 108\nvalue = [0, 0, 1, 107]"] ;
685 -> 686 ;
687 [label="X[11] <= 8.296\ngini = 0.444\nsamples = 3\nvalue = [0, 0, 1, 2]"] ;
686 -> 687 ;
688 [label="gini = 0.0\nsamples = 1\nvalue = [0, 0, 1, 0]"] ;
687 -> 688 ;
689 [label="gini = 0.0\nsamples = 2\nvalue = [0, 0, 0, 2]"] ;
687 -> 689 ;
690 [label="gini = 0.0\nsamples = 105\nvalue = [0, 0, 0, 105]"] ;
686 -> 690 ;
691 [label="X[4] <= 11.254\ngini = 0.485\nsamples = 192\nvalue = [10, 1, 55, 126]"] ;
685 -> 691 ;
692 [label="X[20] <= 2.497\ngini = 0.156\nsamples = 48\nvalue = [2, 0, 2, 44]"] ;
691 -> 692 ;
693 [label="X[13] <= 0.142\ngini = 0.085\nsamples = 45\nvalue = [2, 0, 0, 43]"] ;
692 -> 693 ;
694 [label="X[4] <= 10.301\ngini = 0.044\nsamples = 44\nvalue = [1, 0, 0, 43]"] ;
693 -> 694 ;
695 [label="X[8] <= 38.73\ngini = 0.375\nsamples = 4\nvalue = [1, 0, 0, 3]"] ;
694 -> 695 ;
696 [label="gini = 0.0\nsamples = 1\nvalue = [1, 0, 0, 0]"] ;
695 -> 696 ;
697 [label="gini = 0.0\nsamples = 3\nvalue = [0, 0, 0, 3]"] ;
695 -> 697 ;
698 [label="gini = 0.0\nsamples = 40\nvalue = [0, 0, 0, 40]"] ;
694 -> 698 ;
699 [label="gini = 0.0\nsamples = 1\nvalue = [1, 0, 0, 0]"] ;
693 -> 699 ;
700 [label="X[3] <= 9.5\ngini = 0.444\nsamples = 3\nvalue = [0, 0, 2, 1]"] ;
692 -> 700 ;
701 [label="gini = 0.0\nsamples = 2\nvalue = [0, 0, 2, 0]"] ;
700 -> 701 ;
702 [label="gini = 0.0\nsamples = 1\nvalue = [0, 0, 0, 1]"] ;
700 -> 702 ;
703 [label="X[12] <= 0.436\ngini = 0.537\nsamples = 144\nvalue = [8, 1, 53, 82]"] ;
691 -> 703 ;
704 [label="X[1] <= 145.82\ngini = 0.409\nsamples = 60\nvalue = [6, 1, 8, 45]"] ;
703 -> 704 ;
705 [label="X[0] <= -37.803\ngini = 0.64\nsamples = 10\nvalue = [1, 1, 5, 3]"] ;
704 -> 705 ;
706 [label="X[14] <= 2.815\ngini = 0.449\nsamples = 7\nvalue = [1, 1, 5, 0]"] ;
705 -> 706 ;
707 [label="X[9] <= 111.717\ngini = 0.5\nsamples = 2\nvalue = [1, 1, 0, 0]"] ;
706 -> 707 ;
708 [label="gini = 0.0\nsamples = 1\nvalue = [0, 1, 0, 0]"] ;
707 -> 708 ;
709 [label="gini = 0.0\nsamples = 1\nvalue = [1, 0, 0, 0]"] ;
707 -> 709 ;
710 [label="gini = 0.0\nsamples = 5\nvalue = [0, 0, 5, 0]"] ;
706 -> 710 ;
711 [label="gini = 0.0\nsamples = 3\nvalue = [0, 0, 0, 3]"] ;
705 -> 711 ;
712 [label="X[0] <= -37.776\ngini = 0.281\nsamples = 50\nvalue = [5, 0, 3, 42]"] ;
704 -> 712 ;
713 [label="X[4] <= 11.675\ngini = 0.184\nsamples = 40\nvalue = [1, 0, 3, 36]"] ;
712 -> 713 ;
714 [label="gini = 0.0\nsamples = 2\nvalue = [0, 0, 2, 0]"] ;
713 -> 714 ;
715 [label="X[12] <= 0.144\ngini = 0.101\nsamples = 38\nvalue = [1, 0, 1, 36]"] ;
713 -> 715 ;
716 [label="gini = 0.0\nsamples = 1\nvalue = [1, 0, 0, 0]"] ;
715 -> 716 ;
717 [label="X[12] <= 0.202\ngini = 0.053\nsamples = 37\nvalue = [0, 0, 1, 36]"] ;
715 -> 717 ;
718 [label="X[1] <= 145.884\ngini = 0.375\nsamples = 4\nvalue = [0, 0, 1, 3]"] ;
717 -> 718 ;
719 [label="gini = 0.0\nsamples = 1\nvalue = [0, 0, 1, 0]"] ;
718 -> 719 ;
720 [label="gini = 0.0\nsamples = 3\nvalue = [0, 0, 0, 3]"] ;
718 -> 720 ;
721 [label="gini = 0.0\nsamples = 33\nvalue = [0, 0, 0, 33]"] ;
717 -> 721 ;
722 [label="X[21] <= 849.2\ngini = 0.48\nsamples = 10\nvalue = [4, 0, 0, 6]"] ;
712 -> 722 ;
723 [label="gini = 0.0\nsamples = 4\nvalue = [4, 0, 0, 0]"] ;
722 -> 723 ;
724 [label="gini = 0.0\nsamples = 6\nvalue = [0, 0, 0, 6]"] ;
722 -> 724 ;
725 [label="X[1] <= 146.336\ngini = 0.518\nsamples = 84\nvalue = [2, 0, 45, 37]"] ;
703 -> 725 ;
726 [label="X[1] <= 146.096\ngini = 0.447\nsamples = 61\nvalue = [2, 0, 42, 17]"] ;
725 -> 726 ;
727 [label="X[21] <= 815.1\ngini = 0.562\nsamples = 22\nvalue = [2, 0, 8, 12]"] ;
726 -> 727 ;
728 [label="X[20] <= -0.49\ngini = 0.569\nsamples = 12\nvalue = [2, 0, 7, 3]"] ;
727 -> 728 ;
729 [label="X[9] <= 118.297\ngini = 0.48\nsamples = 5\nvalue = [2, 0, 0, 3]"] ;
728 -> 729 ;
730 [label="gini = 0.0\nsamples = 3\nvalue = [0, 0, 0, 3]"] ;
729 -> 730 ;
731 [label="gini = 0.0\nsamples = 2\nvalue = [2, 0, 0, 0]"] ;
729 -> 731 ;
732 [label="gini = 0.0\nsamples = 7\nvalue = [0, 0, 7, 0]"] ;
728 -> 732 ;
733 [label="X[12] <= 0.613\ngini = 0.18\nsamples = 10\nvalue = [0, 0, 1, 9]"] ;
727 -> 733 ;
734 [label="gini = 0.0\nsamples = 9\nvalue = [0, 0, 0, 9]"] ;
733 -> 734 ;
735 [label="gini = 0.0\nsamples = 1\nvalue = [0, 0, 1, 0]"] ;
733 -> 735 ;
736 [label="X[5] <= 1672.809\ngini = 0.224\nsamples = 39\nvalue = [0, 0, 34, 5]"] ;
726 -> 736 ;
737 [label="gini = 0.0\nsamples = 3\nvalue = [0, 0, 0, 3]"] ;
736 -> 737 ;
738 [label="X[13] <= 0.058\ngini = 0.105\nsamples = 36\nvalue = [0, 0, 34, 2]"] ;
736 -> 738 ;
739 [label="X[7] <= 153.155\ngini = 0.32\nsamples = 10\nvalue = [0, 0, 8, 2]"] ;
738 -> 739 ;
740 [label="gini = 0.0\nsamples = 1\nvalue = [0, 0, 0, 1]"] ;
739 -> 740 ;
741 [label="X[2] <= 4.0\ngini = 0.198\nsamples = 9\nvalue = [0, 0, 8, 1]"] ;
739 -> 741 ;
742 [label="gini = 0.0\nsamples = 8\nvalue = [0, 0, 8, 0]"] ;
741 -> 742 ;
743 [label="gini = 0.0\nsamples = 1\nvalue = [0, 0, 0, 1]"] ;
741 -> 743 ;
744 [label="gini = 0.0\nsamples = 26\nvalue = [0, 0, 26, 0]"] ;
738 -> 744 ;
745 [label="X[5] <= 2372.449\ngini = 0.227\nsamples = 23\nvalue = [0, 0, 3, 20]"] ;
725 -> 745 ;
746 [label="gini = 0.0\nsamples = 20\nvalue = [0, 0, 0, 20]"] ;
745 -> 746 ;
747 [label="gini = 0.0\nsamples = 3\nvalue = [0, 0, 3, 0]"] ;
745 -> 747 ;
748 [label="X[12] <= 2.225\ngini = 0.129\nsamples = 534\nvalue = [10, 16, 10, 498]"] ;
684 -> 748 ;
749 [label="X[17] <= 0.175\ngini = 0.114\nsamples = 519\nvalue = [10, 16, 5, 488]"] ;
748 -> 749 ;
750 [label="X[10] <= 214.404\ngini = 0.099\nsamples = 506\nvalue = [7, 14, 5, 480]"] ;
749 -> 750 ;
751 [label="X[21] <= 1384.8\ngini = 0.215\nsamples = 57\nvalue = [0, 7, 0, 50]"] ;
750 -> 751 ;
752 [label="X[7] <= 173.877\ngini = 0.49\nsamples = 7\nvalue = [0, 4, 0, 3]"] ;
751 -> 752 ;
753 [label="gini = 0.444\nsamples = 3\nvalue = [0, 1, 0, 2]"] ;
752 -> 753 ;
754 [label="X[6] <= 2172.06\ngini = 0.375\nsamples = 4\nvalue = [0, 3, 0, 1]"] ;
752 -> 754 ;
755 [label="gini = 0.444\nsamples = 3\nvalue = [0, 2, 0, 1]"] ;
754 -> 755 ;
756 [label="gini = 0.0\nsamples = 1\nvalue = [0, 1, 0, 0]"] ;
754 -> 756 ;
757 [label="X[4] <= 10.092\ngini = 0.113\nsamples = 50\nvalue = [0, 3, 0, 47]"] ;
751 -> 757 ;
758 [label="X[7] <= 173.29\ngini = 0.5\nsamples = 4\nvalue = [0, 2, 0, 2]"] ;
757 -> 758 ;
759 [label="gini = 0.0\nsamples = 1\nvalue = [0, 0, 0, 1]"] ;
758 -> 759 ;
760 [label="gini = 0.444\nsamples = 3\nvalue = [0, 2, 0, 1]"] ;
758 -> 760 ;
761 [label="X[4] <= 13.768\ngini = 0.043\nsamples = 46\nvalue = [0, 1, 0, 45]"] ;
757 -> 761 ;
762 [label="gini = 0.0\nsamples = 44\nvalue = [0, 0, 0, 44]"] ;
761 -> 762 ;
763 [label="gini = 0.5\nsamples = 2\nvalue = [0, 1, 0, 1]"] ;
761 -> 763 ;
764 [label="X[8] <= 2.524\ngini = 0.082\nsamples = 449\nvalue = [7, 7, 5, 430]"] ;
750 -> 764 ;
765 [label="gini = 0.0\nsamples = 1\nvalue = [0, 1, 0, 0]"] ;
764 -> 765 ;
766 [label="X[0] <= -37.39\ngini = 0.078\nsamples = 448\nvalue = [7, 6, 5, 430]"] ;
764 -> 766 ;
767 [label="X[19] <= 97.0\ngini = 0.137\nsamples = 237\nvalue = [7, 5, 5, 220]"] ;
766 -> 767 ;
768 [label="X[16] <= 108.5\ngini = 0.444\nsamples = 3\nvalue = [0, 2, 0, 1]"] ;
767 -> 768 ;
769 [label="gini = 0.0\nsamples = 1\nvalue = [0, 1, 0, 0]"] ;
768 -> 769 ;
770 [label="gini = 0.5\nsamples = 2\nvalue = [0, 1, 0, 1]"] ;
768 -> 770 ;
771 [label="X[0] <= -37.39\ngini = 0.123\nsamples = 234\nvalue = [7, 3, 5, 219]"] ;
767 -> 771 ;
772 [label="X[7] <= 96.533\ngini = 0.115\nsamples = 233\nvalue = [7, 3, 4, 219]"] ;
771 -> 772 ;
773 [label="X[11] <= 8.755\ngini = 0.375\nsamples = 16\nvalue = [4, 0, 0, 12]"] ;
772 -> 773 ;
774 [label="X[10] <= 252.885\ngini = 0.32\nsamples = 5\nvalue = [4, 0, 0, 1]"] ;
773 -> 774 ;
775 [label="gini = 0.0\nsamples = 1\nvalue = [0, 0, 0, 1]"] ;
774 -> 775 ;
776 [label="gini = 0.0\nsamples = 4\nvalue = [4, 0, 0, 0]"] ;
774 -> 776 ;
777 [label="gini = 0.0\nsamples = 11\nvalue = [0, 0, 0, 11]"] ;
773 -> 777 ;
778 [label="X[12] <= 0.327\ngini = 0.089\nsamples = 217\nvalue = [3, 3, 4, 207]"] ;
772 -> 778 ;
779 [label="X[6] <= 1773.553\ngini = 0.5\nsamples = 2\nvalue = [1, 0, 0, 1]"] ;
778 -> 779 ;
780 [label="gini = 0.0\nsamples = 1\nvalue = [1, 0, 0, 0]"] ;
779 -> 780 ;
781 [label="gini = 0.0\nsamples = 1\nvalue = [0, 0, 0, 1]"] ;
779 -> 781 ;
782 [label="X[17] <= 0.005\ngini = 0.081\nsamples = 215\nvalue = [2, 3, 4, 206]"] ;
778 -> 782 ;
783 [label="X[2] <= 12.5\ngini = 0.32\nsamples = 10\nvalue = [0, 2, 0, 8]"] ;
782 -> 783 ;
784 [label="gini = 0.0\nsamples = 4\nvalue = [0, 0, 0, 4]"] ;
783 -> 784 ;
785 [label="X[0] <= -37.444\ngini = 0.444\nsamples = 6\nvalue = [0, 2, 0, 4]"] ;
783 -> 785 ;
786 [label="gini = 0.444\nsamples = 3\nvalue = [0, 1, 0, 2]"] ;
785 -> 786 ;
787 [label="gini = 0.444\nsamples = 3\nvalue = [0, 1, 0, 2]"] ;
785 -> 787 ;
788 [label="X[20] <= 6.393\ngini = 0.067\nsamples = 205\nvalue = [2, 1, 4, 198]"] ;
782 -> 788 ;
789 [label="X[1] <= 146.547\ngini = 0.058\nsamples = 201\nvalue = [2, 1, 3, 195]"] ;
788 -> 789 ;
790 [label="X[5] <= 2177.194\ngini = 0.05\nsamples = 196\nvalue = [2, 0, 3, 191]"] ;
789 -> 790 ;
791 [label="X[0] <= -37.729\ngini = 0.024\nsamples = 168\nvalue = [1, 0, 1, 166]"] ;
790 -> 791 ;
792 [label="X[0] <= -37.731\ngini = 0.153\nsamples = 12\nvalue = [0, 0, 1, 11]"] ;
791 -> 792 ;
793 [label="gini = 0.0\nsamples = 11\nvalue = [0, 0, 0, 11]"] ;
792 -> 793 ;
794 [label="gini = 0.0\nsamples = 1\nvalue = [0, 0, 1, 0]"] ;
792 -> 794 ;
795 [label="X[4] <= 13.464\ngini = 0.013\nsamples = 156\nvalue = [1, 0, 0, 155]"] ;
791 -> 795 ;
796 [label="gini = 0.0\nsamples = 143\nvalue = [0, 0, 0, 143]"] ;
795 -> 796 ;
797 [label="X[4] <= 13.681\ngini = 0.142\nsamples = 13\nvalue = [1, 0, 0, 12]"] ;
795 -> 797 ;
798 [label="gini = 0.0\nsamples = 1\nvalue = [1, 0, 0, 0]"] ;
797 -> 798 ;
799 [label="gini = 0.0\nsamples = 12\nvalue = [0, 0, 0, 12]"] ;
797 -> 799 ;
800 [label="X[6] <= 2062.462\ngini = 0.196\nsamples = 28\nvalue = [1, 0, 2, 25]"] ;
790 -> 800 ;
801 [label="gini = 0.0\nsamples = 1\nvalue = [1, 0, 0, 0]"] ;
800 -> 801 ;
802 [label="X[8] <= 29.339\ngini = 0.137\nsamples = 27\nvalue = [0, 0, 2, 25]"] ;
800 -> 802 ;
803 [label="X[21] <= 1157.3\ngini = 0.48\nsamples = 5\nvalue = [0, 0, 2, 3]"] ;
802 -> 803 ;
804 [label="gini = 0.0\nsamples = 2\nvalue = [0, 0, 2, 0]"] ;
803 -> 804 ;
805 [label="gini = 0.0\nsamples = 3\nvalue = [0, 0, 0, 3]"] ;
803 -> 805 ;
806 [label="gini = 0.0\nsamples = 22\nvalue = [0, 0, 0, 22]"] ;
802 -> 806 ;
807 [label="X[16] <= 109.5\ngini = 0.32\nsamples = 5\nvalue = [0, 1, 0, 4]"] ;
789 -> 807 ;
808 [label="gini = 0.444\nsamples = 3\nvalue = [0, 1, 0, 2]"] ;
807 -> 808 ;
809 [label="gini = 0.0\nsamples = 2\nvalue = [0, 0, 0, 2]"] ;
807 -> 809 ;
810 [label="X[9] <= 166.524\ngini = 0.375\nsamples = 4\nvalue = [0, 0, 1, 3]"] ;
788 -> 810 ;
811 [label="gini = 0.0\nsamples = 3\nvalue = [0, 0, 0, 3]"] ;
810 -> 811 ;
812 [label="gini = 0.0\nsamples = 1\nvalue = [0, 0, 1, 0]"] ;
810 -> 812 ;
813 [label="gini = 0.0\nsamples = 1\nvalue = [0, 0, 1, 0]"] ;
771 -> 813 ;
814 [label="X[5] <= 1518.466\ngini = 0.009\nsamples = 211\nvalue = [0, 1, 0, 210]"] ;
766 -> 814 ;
815 [label="X[1] <= 146.809\ngini = 0.375\nsamples = 4\nvalue = [0, 1, 0, 3]"] ;
814 -> 815 ;
816 [label="gini = 0.0\nsamples = 2\nvalue = [0, 0, 0, 2]"] ;
815 -> 816 ;
817 [label="gini = 0.5\nsamples = 2\nvalue = [0, 1, 0, 1]"] ;
815 -> 817 ;
818 [label="gini = 0.0\nsamples = 207\nvalue = [0, 0, 0, 207]"] ;
814 -> 818 ;
819 [label="X[13] <= 0.118\ngini = 0.544\nsamples = 13\nvalue = [3, 2, 0, 8]"] ;
749 -> 819 ;
820 [label="gini = 0.0\nsamples = 3\nvalue = [3, 0, 0, 0]"] ;
819 -> 820 ;
821 [label="X[10] <= 251.608\ngini = 0.32\nsamples = 10\nvalue = [0, 2, 0, 8]"] ;
819 -> 821 ;
822 [label="X[5] <= 1968.101\ngini = 0.198\nsamples = 9\nvalue = [0, 1, 0, 8]"] ;
821 -> 822 ;
823 [label="gini = 0.0\nsamples = 6\nvalue = [0, 0, 0, 6]"] ;
822 -> 823 ;
824 [label="gini = 0.444\nsamples = 3\nvalue = [0, 1, 0, 2]"] ;
822 -> 824 ;
825 [label="gini = 0.0\nsamples = 1\nvalue = [0, 1, 0, 0]"] ;
821 -> 825 ;
826 [label="X[8] <= 10.697\ngini = 0.444\nsamples = 15\nvalue = [0, 0, 5, 10]"] ;
748 -> 826 ;
827 [label="X[0] <= -36.907\ngini = 0.494\nsamples = 9\nvalue = [0, 0, 5, 4]"] ;
826 -> 827 ;
828 [label="gini = 0.0\nsamples = 4\nvalue = [0, 0, 0, 4]"] ;
827 -> 828 ;
829 [label="gini = 0.0\nsamples = 5\nvalue = [0, 0, 5, 0]"] ;
827 -> 829 ;
830 [label="gini = 0.0\nsamples = 6\nvalue = [0, 0, 0, 6]"] ;
826 -> 830 ;
}
