digraph Tree {
node [shape=box] ;
0 [label="X[2] <= 3252.0\ngini = 0.093\nsamples = 8096\nvalue = [336, 57, 7703]"] ;
1 [label="X[2] <= 1.5\ngini = 0.065\nsamples = 7969\nvalue = [209, 57, 7703]"] ;
0 -> 1 [labeldistance=2.5, labelangle=45, headlabel="True"] ;
2 [label="X[16] <= 30.5\ngini = 0.457\nsamples = 133\nvalue = [47, 0, 86]"] ;
1 -> 2 ;
3 [label="X[14] <= 0.598\ngini = 0.093\nsamples = 41\nvalue = [39, 0, 2]"] ;
2 -> 3 ;
4 [label="X[14] <= 0.588\ngini = 0.375\nsamples = 8\nvalue = [6, 0, 2]"] ;
3 -> 4 ;
5 [label="gini = 0.0\nsamples = 6\nvalue = [6, 0, 0]"] ;
4 -> 5 ;
6 [label="gini = 0.0\nsamples = 2\nvalue = [0, 0, 2]"] ;
4 -> 6 ;
7 [label="gini = 0.0\nsamples = 33\nvalue = [33, 0, 0]"] ;
3 -> 7 ;
8 [label="X[12] <= 0.063\ngini = 0.159\nsamples = 92\nvalue = [8, 0, 84]"] ;
2 -> 8 ;
9 [label="gini = 0.0\nsamples = 2\nvalue = [2, 0, 0]"] ;
8 -> 9 ;
10 [label="X[17] <= 0.748\ngini = 0.124\nsamples = 90\nvalue = [6, 0, 84]"] ;
8 -> 10 ;
11 [label="X[13] <= 0.004\ngini = 0.027\nsamples = 72\nvalue = [1, 0, 71]"] ;
10 -> 11 ;
12 [label="X[12] <= 0.984\ngini = 0.375\nsamples = 4\nvalue = [1, 0, 3]"] ;
11 -> 12 ;
13 [label="gini = 0.0\nsamples = 3\nvalue = [0, 0, 3]"] ;
12 -> 13 ;
14 [label="gini = 0.0\nsamples = 1\nvalue = [1, 0, 0]"] ;
12 -> 14 ;
15 [label="gini = 0.0\nsamples = 68\nvalue = [0, 0, 68]"] ;
11 -> 15 ;
16 [label="X[17] <= 0.917\ngini = 0.401\nsamples = 18\nvalue = [5, 0, 13]"] ;
10 -> 16 ;
17 [label="gini = 0.0\nsamples = 3\nvalue = [3, 0, 0]"] ;
16 -> 17 ;
18 [label="X[16] <= 64.5\ngini = 0.231\nsamples = 15\nvalue = [2, 0, 13]"] ;
16 -> 18 ;
19 [label="X[11] <= 13.646\ngini = 0.5\nsamples = 4\nvalue = [2, 0, 2]"] ;
18 -> 19 ;
20 [label="gini = 0.0\nsamples = 2\nvalue = [0, 0, 2]"] ;
19 -> 20 ;
21 [label="gini = 0.0\nsamples = 2\nvalue = [2, 0, 0]"] ;
19 -> 21 ;
22 [label="gini = 0.0\nsamples = 11\nvalue = [0, 0, 11]"] ;
18 -> 22 ;
23 [label="X[4] <= 11.662\ngini = 0.055\nsamples = 7836\nvalue = [162, 57, 7617]"] ;
1 -> 23 ;
24 [label="X[2] <= 16.5\ngini = 0.392\nsamples = 187\nvalue = [44, 4, 139]"] ;
23 -> 24 ;
25 [label="X[10] <= 339.225\ngini = 0.541\nsamples = 64\nvalue = [28, 3, 33]"] ;
24 -> 25 ;
26 [label="X[11] <= 10.131\ngini = 0.506\nsamples = 53\nvalue = [17, 3, 33]"] ;
25 -> 26 ;
27 [label="X[2] <= 9.5\ngini = 0.298\nsamples = 11\nvalue = [9, 0, 2]"] ;
26 -> 27 ;
28 [label="gini = 0.0\nsamples = 5\nvalue = [5, 0, 0]"] ;
27 -> 28 ;
29 [label="X[3] <= 10.0\ngini = 0.444\nsamples = 6\nvalue = [4, 0, 2]"] ;
27 -> 29 ;
30 [label="X[2] <= 11.5\ngini = 0.32\nsamples = 5\nvalue = [4, 0, 1]"] ;
29 -> 30 ;
31 [label="gini = 0.0\nsamples = 3\nvalue = [3, 0, 0]"] ;
30 -> 31 ;
32 [label="X[15] <= 7.0\ngini = 0.5\nsamples = 2\nvalue = [1, 0, 1]"] ;
30 -> 32 ;
33 [label="gini = 0.0\nsamples = 1\nvalue = [0, 0, 1]"] ;
32 -> 33 ;
34 [label="gini = 0.0\nsamples = 1\nvalue = [1, 0, 0]"] ;
32 -> 34 ;
35 [label="gini = 0.0\nsamples = 1\nvalue = [0, 0, 1]"] ;
29 -> 35 ;
36 [label="X[15] <= 15.0\ngini = 0.414\nsamples = 42\nvalue = [8, 3, 31]"] ;
26 -> 36 ;
37 [label="X[1] <= 143.626\ngini = 0.292\nsamples = 36\nvalue = [3, 3, 30]"] ;
36 -> 37 ;
38 [label="X[20] <= 0.956\ngini = 0.5\nsamples = 6\nvalue = [0, 3, 3]"] ;
37 -> 38 ;
39 [label="gini = 0.0\nsamples = 3\nvalue = [0, 3, 0]"] ;
38 -> 39 ;
40 [label="gini = 0.0\nsamples = 3\nvalue = [0, 0, 3]"] ;
38 -> 40 ;
41 [label="X[0] <= -36.116\ngini = 0.18\nsamples = 30\nvalue = [3, 0, 27]"] ;
37 -> 41 ;
42 [label="gini = 0.0\nsamples = 22\nvalue = [0, 0, 22]"] ;
41 -> 42 ;
43 [label="X[2] <= 13.0\ngini = 0.469\nsamples = 8\nvalue = [3, 0, 5]"] ;
41 -> 43 ;
44 [label="gini = 0.0\nsamples = 3\nvalue = [3, 0, 0]"] ;
43 -> 44 ;
45 [label="gini = 0.0\nsamples = 5\nvalue = [0, 0, 5]"] ;
43 -> 45 ;
46 [label="X[2] <= 12.5\ngini = 0.278\nsamples = 6\nvalue = [5, 0, 1]"] ;
36 -> 46 ;
47 [label="X[0] <= -36.554\ngini = 0.444\nsamples = 3\nvalue = [2, 0, 1]"] ;
46 -> 47 ;
48 [label="gini = 0.5\nsamples = 2\nvalue = [1, 0, 1]"] ;
47 -> 48 ;
49 [label="gini = 0.0\nsamples = 1\nvalue = [1, 0, 0]"] ;
47 -> 49 ;
50 [label="gini = 0.0\nsamples = 3\nvalue = [3, 0, 0]"] ;
46 -> 50 ;
51 [label="gini = 0.0\nsamples = 11\nvalue = [11, 0, 0]"] ;
25 -> 51 ;
52 [label="X[6] <= 2307.931\ngini = 0.24\nsamples = 123\nvalue = [16, 1, 106]"] ;
24 -> 52 ;
53 [label="X[13] <= 0.002\ngini = 0.133\nsamples = 99\nvalue = [6, 1, 92]"] ;
52 -> 53 ;
54 [label="gini = 0.0\nsamples = 1\nvalue = [1, 0, 0]"] ;
53 -> 54 ;
55 [label="X[0] <= -36.103\ngini = 0.116\nsamples = 98\nvalue = [5, 1, 92]"] ;
53 -> 55 ;
56 [label="X[15] <= 15.0\ngini = 0.067\nsamples = 87\nvalue = [2, 1, 84]"] ;
55 -> 56 ;
57 [label="X[11] <= 19.673\ngini = 0.027\nsamples = 73\nvalue = [0, 1, 72]"] ;
56 -> 57 ;
58 [label="gini = 0.0\nsamples = 65\nvalue = [0, 0, 65]"] ;
57 -> 58 ;
59 [label="X[2] <= 19.0\ngini = 0.219\nsamples = 8\nvalue = [0, 1, 7]"] ;
57 -> 59 ;
60 [label="gini = 0.0\nsamples = 1\nvalue = [0, 1, 0]"] ;
59 -> 60 ;
61 [label="gini = 0.0\nsamples = 7\nvalue = [0, 0, 7]"] ;
59 -> 61 ;
62 [label="X[2] <= 21.0\ngini = 0.245\nsamples = 14\nvalue = [2, 0, 12]"] ;
56 -> 62 ;
63 [label="X[13] <= 0.04\ngini = 0.444\nsamples = 3\nvalue = [1, 0, 2]"] ;
62 -> 63 ;
64 [label="gini = 0.0\nsamples = 1\nvalue = [0, 0, 1]"] ;
63 -> 64 ;
65 [label="X[2] <= 18.5\ngini = 0.5\nsamples = 2\nvalue = [1, 0, 1]"] ;
63 -> 65 ;
66 [label="gini = 0.0\nsamples = 1\nvalue = [0, 0, 1]"] ;
65 -> 66 ;
67 [label="gini = 0.0\nsamples = 1\nvalue = [1, 0, 0]"] ;
65 -> 67 ;
68 [label="X[7] <= 42.004\ngini = 0.165\nsamples = 11\nvalue = [1, 0, 10]"] ;
62 -> 68 ;
69 [label="gini = 0.0\nsamples = 6\nvalue = [0, 0, 6]"] ;
68 -> 69 ;
70 [label="X[2] <= 23.0\ngini = 0.32\nsamples = 5\nvalue = [1, 0, 4]"] ;
68 -> 70 ;
71 [label="gini = 0.0\nsamples = 3\nvalue = [0, 0, 3]"] ;
70 -> 71 ;
72 [label="X[2] <= 25.0\ngini = 0.5\nsamples = 2\nvalue = [1, 0, 1]"] ;
70 -> 72 ;
73 [label="gini = 0.0\nsamples = 1\nvalue = [1, 0, 0]"] ;
72 -> 73 ;
74 [label="gini = 0.0\nsamples = 1\nvalue = [0, 0, 1]"] ;
72 -> 74 ;
75 [label="X[2] <= 21.0\ngini = 0.397\nsamples = 11\nvalue = [3, 0, 8]"] ;
55 -> 75 ;
76 [label="gini = 0.0\nsamples = 3\nvalue = [3, 0, 0]"] ;
75 -> 76 ;
77 [label="gini = 0.0\nsamples = 8\nvalue = [0, 0, 8]"] ;
75 -> 77 ;
78 [label="X[2] <= 30.5\ngini = 0.486\nsamples = 24\nvalue = [10, 0, 14]"] ;
52 -> 78 ;
79 [label="X[2] <= 23.5\ngini = 0.498\nsamples = 17\nvalue = [9, 0, 8]"] ;
78 -> 79 ;
80 [label="X[2] <= 21.5\ngini = 0.444\nsamples = 9\nvalue = [3, 0, 6]"] ;
79 -> 80 ;
81 [label="X[2] <= 17.5\ngini = 0.48\nsamples = 5\nvalue = [3, 0, 2]"] ;
80 -> 81 ;
82 [label="gini = 0.0\nsamples = 2\nvalue = [0, 0, 2]"] ;
81 -> 82 ;
83 [label="gini = 0.0\nsamples = 3\nvalue = [3, 0, 0]"] ;
81 -> 83 ;
84 [label="gini = 0.0\nsamples = 4\nvalue = [0, 0, 4]"] ;
80 -> 84 ;
85 [label="X[2] <= 27.0\ngini = 0.375\nsamples = 8\nvalue = [6, 0, 2]"] ;
79 -> 85 ;
86 [label="X[2] <= 24.5\ngini = 0.444\nsamples = 6\nvalue = [4, 0, 2]"] ;
85 -> 86 ;
87 [label="gini = 0.0\nsamples = 1\nvalue = [1, 0, 0]"] ;
86 -> 87 ;
88 [label="X[15] <= 12.0\ngini = 0.48\nsamples = 5\nvalue = [3, 0, 2]"] ;
86 -> 88 ;
89 [label="X[2] <= 25.5\ngini = 0.444\nsamples = 3\nvalue = [2, 0, 1]"] ;
88 -> 89 ;
90 [label="gini = 0.5\nsamples = 2\nvalue = [1, 0, 1]"] ;
89 -> 90 ;
91 [label="gini = 0.0\nsamples = 1\nvalue = [1, 0, 0]"] ;
89 -> 91 ;
92 [label="X[2] <= 25.5\ngini = 0.5\nsamples = 2\nvalue = [1, 0, 1]"] ;
88 -> 92 ;
93 [label="gini = 0.0\nsamples = 1\nvalue = [1, 0, 0]"] ;
92 -> 93 ;
94 [label="gini = 0.0\nsamples = 1\nvalue = [0, 0, 1]"] ;
92 -> 94 ;
95 [label="gini = 0.0\nsamples = 2\nvalue = [2, 0, 0]"] ;
85 -> 95 ;
96 [label="X[2] <= 32.5\ngini = 0.245\nsamples = 7\nvalue = [1, 0, 6]"] ;
78 -> 96 ;
97 [label="X[8] <= 54.536\ngini = 0.375\nsamples = 4\nvalue = [1, 0, 3]"] ;
96 -> 97 ;
98 [label="gini = 0.0\nsamples = 1\nvalue = [0, 0, 1]"] ;
97 -> 98 ;
99 [label="gini = 0.444\nsamples = 3\nvalue = [1, 0, 2]"] ;
97 -> 99 ;
100 [label="gini = 0.0\nsamples = 3\nvalue = [0, 0, 3]"] ;
96 -> 100 ;
101 [label="X[2] <= 13.5\ngini = 0.044\nsamples = 7649\nvalue = [118, 53, 7478]"] ;
23 -> 101 ;
102 [label="X[10] <= 320.258\ngini = 0.095\nsamples = 2271\nvalue = [91, 22, 2158]"] ;
101 -> 102 ;
103 [label="X[0] <= -36.887\ngini = 0.245\nsamples = 402\nvalue = [47, 9, 346]"] ;
102 -> 103 ;
104 [label="X[2] <= 2.5\ngini = 0.156\nsamples = 289\nvalue = [15, 9, 265]"] ;
103 -> 104 ;
105 [label="X[10] <= 312.176\ngini = 0.5\nsamples = 12\nvalue = [0, 6, 6]"] ;
104 -> 105 ;
106 [label="gini = 0.0\nsamples = 5\nvalue = [0, 0, 5]"] ;
105 -> 106 ;
107 [label="X[10] <= 316.087\ngini = 0.245\nsamples = 7\nvalue = [0, 6, 1]"] ;
105 -> 107 ;
108 [label="gini = 0.0\nsamples = 6\nvalue = [0, 6, 0]"] ;
107 -> 108 ;
109 [label="gini = 0.0\nsamples = 1\nvalue = [0, 0, 1]"] ;
107 -> 109 ;
110 [label="X[10] <= 320.228\ngini = 0.123\nsamples = 277\nvalue = [15, 3, 259]"] ;
104 -> 110 ;
111 [label="X[17] <= 0.018\ngini = 0.099\nsamples = 270\nvalue = [11, 3, 256]"] ;
110 -> 111 ;
112 [label="X[20] <= 0.085\ngini = 0.48\nsamples = 5\nvalue = [3, 0, 2]"] ;
111 -> 112 ;
113 [label="gini = 0.0\nsamples = 2\nvalue = [0, 0, 2]"] ;
112 -> 113 ;
114 [label="gini = 0.0\nsamples = 3\nvalue = [3, 0, 0]"] ;
112 -> 114 ;
115 [label="X[7] <= -2.392\ngini = 0.08\nsamples = 265\nvalue = [8, 3, 254]"] ;
111 -> 115 ;
116 [label="gini = 0.0\nsamples = 1\nvalue = [1, 0, 0]"] ;
115 -> 116 ;
117 [label="X[12] <= 2.826\ngini = 0.073\nsamples = 264\nvalue = [7, 3, 254]"] ;
115 -> 117 ;
118 [label="X[12] <= 0.217\ngini = 0.06\nsamples = 260\nvalue = [7, 1, 252]"] ;
117 -> 118 ;
119 [label="X[21] <= 239.2\ngini = 0.234\nsamples = 37\nvalue = [5, 0, 32]"] ;
118 -> 119 ;
120 [label="X[13] <= 0.002\ngini = 0.114\nsamples = 33\nvalue = [2, 0, 31]"] ;
119 -> 120 ;
121 [label="gini = 0.0\nsamples = 1\nvalue = [1, 0, 0]"] ;
120 -> 121 ;
122 [label="X[6] <= 2232.378\ngini = 0.061\nsamples = 32\nvalue = [1, 0, 31]"] ;
120 -> 122 ;
123 [label="gini = 0.0\nsamples = 31\nvalue = [0, 0, 31]"] ;
122 -> 123 ;
124 [label="gini = 0.0\nsamples = 1\nvalue = [1, 0, 0]"] ;
122 -> 124 ;
125 [label="X[9] <= 30.775\ngini = 0.375\nsamples = 4\nvalue = [3, 0, 1]"] ;
119 -> 125 ;
126 [label="gini = 0.0\nsamples = 1\nvalue = [0, 0, 1]"] ;
125 -> 126 ;
127 [label="gini = 0.0\nsamples = 3\nvalue = [3, 0, 0]"] ;
125 -> 127 ;
128 [label="X[10] <= 320.115\ngini = 0.027\nsamples = 223\nvalue = [2, 1, 220]"] ;
118 -> 128 ;
129 [label="X[13] <= 0.005\ngini = 0.018\nsamples = 217\nvalue = [1, 1, 215]"] ;
128 -> 129 ;
130 [label="X[13] <= 0.004\ngini = 0.198\nsamples = 9\nvalue = [0, 1, 8]"] ;
129 -> 130 ;
131 [label="gini = 0.0\nsamples = 8\nvalue = [0, 0, 8]"] ;
130 -> 131 ;
132 [label="gini = 0.0\nsamples = 1\nvalue = [0, 1, 0]"] ;
130 -> 132 ;
133 [label="X[11] <= 8.862\ngini = 0.01\nsamples = 208\nvalue = [1, 0, 207]"] ;
129 -> 133 ;
134 [label="X[11] <= 8.827\ngini = 0.124\nsamples = 15\nvalue = [1, 0, 14]"] ;
133 -> 134 ;
135 [label="gini = 0.0\nsamples = 14\nvalue = [0, 0, 14]"] ;
134 -> 135 ;
136 [label="gini = 0.0\nsamples = 1\nvalue = [1, 0, 0]"] ;
134 -> 136 ;
137 [label="gini = 0.0\nsamples = 193\nvalue = [0, 0, 193]"] ;
133 -> 137 ;
138 [label="X[2] <= 7.0\ngini = 0.278\nsamples = 6\nvalue = [1, 0, 5]"] ;
128 -> 138 ;
139 [label="gini = 0.0\nsamples = 1\nvalue = [1, 0, 0]"] ;
138 -> 139 ;
140 [label="gini = 0.0\nsamples = 5\nvalue = [0, 0, 5]"] ;
138 -> 140 ;
141 [label="X[20] <= 0.136\ngini = 0.5\nsamples = 4\nvalue = [0, 2, 2]"] ;
117 -> 141 ;
142 [label="gini = 0.0\nsamples = 2\nvalue = [0, 2, 0]"] ;
141 -> 142 ;
143 [label="gini = 0.0\nsamples = 2\nvalue = [0, 0, 2]"] ;
141 -> 143 ;
144 [label="X[2] <= 5.5\ngini = 0.49\nsamples = 7\nvalue = [4, 0, 3]"] ;
110 -> 144 ;
145 [label="gini = 0.0\nsamples = 1\nvalue = [0, 0, 1]"] ;
144 -> 145 ;
146 [label="X[2] <= 6.5\ngini = 0.444\nsamples = 6\nvalue = [4, 0, 2]"] ;
144 -> 146 ;
147 [label="gini = 0.0\nsamples = 2\nvalue = [2, 0, 0]"] ;
146 -> 147 ;
148 [label="X[2] <= 7.5\ngini = 0.5\nsamples = 4\nvalue = [2, 0, 2]"] ;
146 -> 148 ;
149 [label="gini = 0.0\nsamples = 1\nvalue = [0, 0, 1]"] ;
148 -> 149 ;
150 [label="X[2] <= 9.5\ngini = 0.444\nsamples = 3\nvalue = [2, 0, 1]"] ;
148 -> 150 ;
151 [label="gini = 0.5\nsamples = 2\nvalue = [1, 0, 1]"] ;
150 -> 151 ;
152 [label="gini = 0.0\nsamples = 1\nvalue = [1, 0, 0]"] ;
150 -> 152 ;
153 [label="X[4] <= 14.291\ngini = 0.406\nsamples = 113\nvalue = [32, 0, 81]"] ;
103 -> 153 ;
154 [label="gini = 0.0\nsamples = 30\nvalue = [0, 0, 30]"] ;
153 -> 154 ;
155 [label="X[2] <= 7.5\ngini = 0.474\nsamples = 83\nvalue = [32, 0, 51]"] ;
153 -> 155 ;
156 [label="X[16] <= 90.0\ngini = 0.454\nsamples = 23\nvalue = [15, 0, 8]"] ;
155 -> 156 ;
157 [label="gini = 0.0\nsamples = 2\nvalue = [0, 0, 2]"] ;
156 -> 157 ;
158 [label="X[7] <= 32.183\ngini = 0.408\nsamples = 21\nvalue = [15, 0, 6]"] ;
156 -> 158 ;
159 [label="gini = 0.0\nsamples = 8\nvalue = [8, 0, 0]"] ;
158 -> 159 ;
160 [label="X[12] <= 1.373\ngini = 0.497\nsamples = 13\nvalue = [7, 0, 6]"] ;
158 -> 160 ;
161 [label="gini = 0.0\nsamples = 1\nvalue = [0, 0, 1]"] ;
160 -> 161 ;
162 [label="X[13] <= 0.059\ngini = 0.486\nsamples = 12\nvalue = [7, 0, 5]"] ;
160 -> 162 ;
163 [label="X[2] <= 5.5\ngini = 0.469\nsamples = 8\nvalue = [5, 0, 3]"] ;
162 -> 163 ;
164 [label="X[7] <= 33.903\ngini = 0.5\nsamples = 2\nvalue = [1, 0, 1]"] ;
163 -> 164 ;
165 [label="gini = 0.0\nsamples = 1\nvalue = [1, 0, 0]"] ;
164 -> 165 ;
166 [label="gini = 0.0\nsamples = 1\nvalue = [0, 0, 1]"] ;
164 -> 166 ;
167 [label="X[2] <= 6.5\ngini = 0.444\nsamples = 6\nvalue = [4, 0, 2]"] ;
163 -> 167 ;
168 [label="gini = 0.0\nsamples = 1\nvalue = [1, 0, 0]"] ;
167 -> 168 ;
169 [label="X[15] <= 58.0\ngini = 0.48\nsamples = 5\nvalue = [3, 0, 2]"] ;
167 -> 169 ;
170 [label="gini = 0.0\nsamples = 1\nvalue = [0, 0, 1]"] ;
169 -> 170 ;
171 [label="gini = 0.375\nsamples = 4\nvalue = [3, 0, 1]"] ;
169 -> 171 ;
172 [label="X[2] <= 6.0\ngini = 0.5\nsamples = 4\nvalue = [2, 0, 2]"] ;
162 -> 172 ;
173 [label="gini = 0.5\nsamples = 2\nvalue = [1, 0, 1]"] ;
172 -> 173 ;
174 [label="gini = 0.5\nsamples = 2\nvalue = [1, 0, 1]"] ;
172 -> 174 ;
175 [label="X[14] <= 2.309\ngini = 0.406\nsamples = 60\nvalue = [17, 0, 43]"] ;
155 -> 175 ;
176 [label="X[3] <= 4.0\ngini = 0.257\nsamples = 33\nvalue = [5, 0, 28]"] ;
175 -> 176 ;
177 [label="X[2] <= 10.5\ngini = 0.5\nsamples = 2\nvalue = [1, 0, 1]"] ;
176 -> 177 ;
178 [label="gini = 0.0\nsamples = 1\nvalue = [0, 0, 1]"] ;
177 -> 178 ;
179 [label="gini = 0.0\nsamples = 1\nvalue = [1, 0, 0]"] ;
177 -> 179 ;
180 [label="X[20] <= 0.051\ngini = 0.225\nsamples = 31\nvalue = [4, 0, 27]"] ;
176 -> 180 ;
181 [label="X[2] <= 8.5\ngini = 0.153\nsamples = 24\nvalue = [2, 0, 22]"] ;
180 -> 181 ;
182 [label="X[20] <= -0.178\ngini = 0.32\nsamples = 5\nvalue = [1, 0, 4]"] ;
181 -> 182 ;
183 [label="gini = 0.444\nsamples = 3\nvalue = [1, 0, 2]"] ;
182 -> 183 ;
184 [label="gini = 0.0\nsamples = 2\nvalue = [0, 0, 2]"] ;
182 -> 184 ;
185 [label="X[6] <= 1766.119\ngini = 0.1\nsamples = 19\nvalue = [1, 0, 18]"] ;
181 -> 185 ;
186 [label="X[2] <= 10.5\ngini = 0.245\nsamples = 7\nvalue = [1, 0, 6]"] ;
185 -> 186 ;
187 [label="X[2] <= 9.5\ngini = 0.375\nsamples = 4\nvalue = [1, 0, 3]"] ;
186 -> 187 ;
188 [label="gini = 0.0\nsamples = 1\nvalue = [0, 0, 1]"] ;
187 -> 188 ;
189 [label="gini = 0.444\nsamples = 3\nvalue = [1, 0, 2]"] ;
187 -> 189 ;
190 [label="gini = 0.0\nsamples = 3\nvalue = [0, 0, 3]"] ;
186 -> 190 ;
191 [label="gini = 0.0\nsamples = 12\nvalue = [0, 0, 12]"] ;
185 -> 191 ;
192 [label="X[2] <= 10.5\ngini = 0.408\nsamples = 7\nvalue = [2, 0, 5]"] ;
180 -> 192 ;
193 [label="X[2] <= 8.5\ngini = 0.48\nsamples = 5\nvalue = [2, 0, 3]"] ;
192 -> 193 ;
194 [label="gini = 0.0\nsamples = 1\nvalue = [0, 0, 1]"] ;
193 -> 194 ;
195 [label="X[2] <= 9.5\ngini = 0.5\nsamples = 4\nvalue = [2, 0, 2]"] ;
193 -> 195 ;
196 [label="gini = 0.5\nsamples = 2\nvalue = [1, 0, 1]"] ;
195 -> 196 ;
197 [label="gini = 0.5\nsamples = 2\nvalue = [1, 0, 1]"] ;
195 -> 197 ;
198 [label="gini = 0.0\nsamples = 2\nvalue = [0, 0, 2]"] ;
192 -> 198 ;
199 [label="X[2] <= 10.5\ngini = 0.494\nsamples = 27\nvalue = [12, 0, 15]"] ;
175 -> 199 ;
200 [label="X[11] <= 13.526\ngini = 0.43\nsamples = 16\nvalue = [5, 0, 11]"] ;
199 -> 200 ;
201 [label="X[9] <= 33.935\ngini = 0.48\nsamples = 5\nvalue = [3, 0, 2]"] ;
200 -> 201 ;
202 [label="gini = 0.0\nsamples = 1\nvalue = [1, 0, 0]"] ;
201 -> 202 ;
203 [label="X[2] <= 9.0\ngini = 0.5\nsamples = 4\nvalue = [2, 0, 2]"] ;
201 -> 203 ;
204 [label="gini = 0.0\nsamples = 1\nvalue = [0, 0, 1]"] ;
203 -> 204 ;
205 [label="X[6] <= 1962.245\ngini = 0.444\nsamples = 3\nvalue = [2, 0, 1]"] ;
203 -> 205 ;
206 [label="gini = 0.5\nsamples = 2\nvalue = [1, 0, 1]"] ;
205 -> 206 ;
207 [label="gini = 0.0\nsamples = 1\nvalue = [1, 0, 0]"] ;
205 -> 207 ;
208 [label="X[2] <= 8.5\ngini = 0.298\nsamples = 11\nvalue = [2, 0, 9]"] ;
200 -> 208 ;
209 [label="gini = 0.0\nsamples = 1\nvalue = [1, 0, 0]"] ;
208 -> 209 ;
210 [label="X[15] <= 58.0\ngini = 0.18\nsamples = 10\nvalue = [1, 0, 9]"] ;
208 -> 210 ;
211 [label="X[2] <= 9.5\ngini = 0.32\nsamples = 5\nvalue = [1, 0, 4]"] ;
210 -> 211 ;
212 [label="gini = 0.0\nsamples = 1\nvalue = [0, 0, 1]"] ;
211 -> 212 ;
213 [label="gini = 0.375\nsamples = 4\nvalue = [1, 0, 3]"] ;
211 -> 213 ;
214 [label="gini = 0.0\nsamples = 5\nvalue = [0, 0, 5]"] ;
210 -> 214 ;
215 [label="X[2] <= 11.5\ngini = 0.463\nsamples = 11\nvalue = [7, 0, 4]"] ;
199 -> 215 ;
216 [label="X[6] <= 1932.895\ngini = 0.278\nsamples = 6\nvalue = [5, 0, 1]"] ;
215 -> 216 ;
217 [label="gini = 0.5\nsamples = 2\nvalue = [1, 0, 1]"] ;
216 -> 217 ;
218 [label="gini = 0.0\nsamples = 4\nvalue = [4, 0, 0]"] ;
216 -> 218 ;
219 [label="X[12] <= 1.507\ngini = 0.48\nsamples = 5\nvalue = [2, 0, 3]"] ;
215 -> 219 ;
220 [label="gini = 0.5\nsamples = 2\nvalue = [1, 0, 1]"] ;
219 -> 220 ;
221 [label="gini = 0.444\nsamples = 3\nvalue = [1, 0, 2]"] ;
219 -> 221 ;
222 [label="X[1] <= 143.554\ngini = 0.059\nsamples = 1869\nvalue = [44, 13, 1812]"] ;
102 -> 222 ;
223 [label="X[1] <= 143.542\ngini = 0.122\nsamples = 697\nvalue = [36, 9, 652]"] ;
222 -> 223 ;
224 [label="X[1] <= 143.297\ngini = 0.11\nsamples = 691\nvalue = [36, 4, 651]"] ;
223 -> 224 ;
225 [label="X[0] <= -36.769\ngini = 0.072\nsamples = 563\nvalue = [18, 3, 542]"] ;
224 -> 225 ;
226 [label="X[0] <= -36.772\ngini = 0.278\nsamples = 60\nvalue = [10, 0, 50]"] ;
225 -> 226 ;
227 [label="X[6] <= 2171.742\ngini = 0.194\nsamples = 55\nvalue = [6, 0, 49]"] ;
226 -> 227 ;
228 [label="X[7] <= 28.406\ngini = 0.046\nsamples = 42\nvalue = [1, 0, 41]"] ;
227 -> 228 ;
229 [label="gini = 0.0\nsamples = 41\nvalue = [0, 0, 41]"] ;
228 -> 229 ;
230 [label="gini = 0.0\nsamples = 1\nvalue = [1, 0, 0]"] ;
228 -> 230 ;
231 [label="X[20] <= 0.043\ngini = 0.473\nsamples = 13\nvalue = [5, 0, 8]"] ;
227 -> 231 ;
232 [label="gini = 0.0\nsamples = 8\nvalue = [0, 0, 8]"] ;
231 -> 232 ;
233 [label="gini = 0.0\nsamples = 5\nvalue = [5, 0, 0]"] ;
231 -> 233 ;
234 [label="X[2] <= 8.0\ngini = 0.32\nsamples = 5\nvalue = [4, 0, 1]"] ;
226 -> 234 ;
235 [label="X[2] <= 6.0\ngini = 0.5\nsamples = 2\nvalue = [1, 0, 1]"] ;
234 -> 235 ;
236 [label="gini = 0.0\nsamples = 1\nvalue = [1, 0, 0]"] ;
235 -> 236 ;
237 [label="gini = 0.0\nsamples = 1\nvalue = [0, 0, 1]"] ;
235 -> 237 ;
238 [label="gini = 0.0\nsamples = 3\nvalue = [3, 0, 0]"] ;
234 -> 238 ;
239 [label="X[3] <= 113.5\ngini = 0.043\nsamples = 503\nvalue = [8, 3, 492]"] ;
225 -> 239 ;
240 [label="X[16] <= 96.5\ngini = 0.039\nsamples = 501\nvalue = [7, 3, 491]"] ;
239 -> 240 ;
241 [label="X[14] <= 0.047\ngini = 0.029\nsamples = 477\nvalue = [4, 3, 470]"] ;
240 -> 241 ;
242 [label="X[14] <= 0.015\ngini = 0.5\nsamples = 2\nvalue = [0, 1, 1]"] ;
241 -> 242 ;
243 [label="gini = 0.0\nsamples = 1\nvalue = [0, 0, 1]"] ;
242 -> 243 ;
244 [label="gini = 0.0\nsamples = 1\nvalue = [0, 1, 0]"] ;
242 -> 244 ;
245 [label="X[17] <= 2.464\ngini = 0.025\nsamples = 475\nvalue = [4, 2, 469]"] ;
241 -> 245 ;
246 [label="X[13] <= 0.029\ngini = 0.021\nsamples = 471\nvalue = [3, 2, 466]"] ;
245 -> 246 ;
247 [label="X[2] <= 5.5\ngini = 0.017\nsamples = 459\nvalue = [2, 2, 455]"] ;
246 -> 247 ;
248 [label="X[1] <= 142.221\ngini = 0.078\nsamples = 75\nvalue = [1, 2, 72]"] ;
247 -> 248 ;
249 [label="gini = 0.0\nsamples = 57\nvalue = [0, 0, 57]"] ;
248 -> 249 ;
250 [label="X[12] <= 0.512\ngini = 0.29\nsamples = 18\nvalue = [1, 2, 15]"] ;
248 -> 250 ;
251 [label="gini = 0.0\nsamples = 2\nvalue = [0, 2, 0]"] ;
250 -> 251 ;
252 [label="X[8] <= 67.977\ngini = 0.117\nsamples = 16\nvalue = [1, 0, 15]"] ;
250 -> 252 ;
253 [label="gini = 0.0\nsamples = 1\nvalue = [1, 0, 0]"] ;
252 -> 253 ;
254 [label="gini = 0.0\nsamples = 15\nvalue = [0, 0, 15]"] ;
252 -> 254 ;
255 [label="X[15] <= 108.5\ngini = 0.005\nsamples = 384\nvalue = [1, 0, 383]"] ;
247 -> 255 ;
256 [label="gini = 0.0\nsamples = 366\nvalue = [0, 0, 366]"] ;
255 -> 256 ;
257 [label="X[5] <= 2099.027\ngini = 0.105\nsamples = 18\nvalue = [1, 0, 17]"] ;
255 -> 257 ;
258 [label="gini = 0.0\nsamples = 1\nvalue = [1, 0, 0]"] ;
257 -> 258 ;
259 [label="gini = 0.0\nsamples = 17\nvalue = [0, 0, 17]"] ;
257 -> 259 ;
260 [label="X[1] <= 143.233\ngini = 0.153\nsamples = 12\nvalue = [1, 0, 11]"] ;
246 -> 260 ;
261 [label="gini = 0.0\nsamples = 11\nvalue = [0, 0, 11]"] ;
260 -> 261 ;
262 [label="gini = 0.0\nsamples = 1\nvalue = [1, 0, 0]"] ;
260 -> 262 ;
263 [label="X[17] <= 2.534\ngini = 0.375\nsamples = 4\nvalue = [1, 0, 3]"] ;
245 -> 263 ;
264 [label="gini = 0.0\nsamples = 1\nvalue = [1, 0, 0]"] ;
263 -> 264 ;
265 [label="gini = 0.0\nsamples = 3\nvalue = [0, 0, 3]"] ;
263 -> 265 ;
266 [label="X[13] <= 0.002\ngini = 0.219\nsamples = 24\nvalue = [3, 0, 21]"] ;
240 -> 266 ;
267 [label="gini = 0.0\nsamples = 1\nvalue = [1, 0, 0]"] ;
266 -> 267 ;
268 [label="X[14] <= 1.599\ngini = 0.159\nsamples = 23\nvalue = [2, 0, 21]"] ;
266 -> 268 ;
269 [label="X[1] <= 142.442\ngini = 0.087\nsamples = 22\nvalue = [1, 0, 21]"] ;
268 -> 269 ;
270 [label="gini = 0.0\nsamples = 19\nvalue = [0, 0, 19]"] ;
269 -> 270 ;
271 [label="X[8] <= 68.4\ngini = 0.444\nsamples = 3\nvalue = [1, 0, 2]"] ;
269 -> 271 ;
272 [label="gini = 0.0\nsamples = 1\nvalue = [1, 0, 0]"] ;
271 -> 272 ;
273 [label="gini = 0.0\nsamples = 2\nvalue = [0, 0, 2]"] ;
271 -> 273 ;
274 [label="gini = 0.0\nsamples = 1\nvalue = [1, 0, 0]"] ;
268 -> 274 ;
275 [label="X[4] <= 16.451\ngini = 0.5\nsamples = 2\nvalue = [1, 0, 1]"] ;
239 -> 275 ;
276 [label="gini = 0.0\nsamples = 1\nvalue = [1, 0, 0]"] ;
275 -> 276 ;
277 [label="gini = 0.0\nsamples = 1\nvalue = [0, 0, 1]"] ;
275 -> 277 ;
278 [label="X[20] <= -0.053\ngini = 0.255\nsamples = 128\nvalue = [18, 1, 109]"] ;
224 -> 278 ;
279 [label="X[12] <= 1.132\ngini = 0.473\nsamples = 13\nvalue = [8, 0, 5]"] ;
278 -> 279 ;
280 [label="gini = 0.0\nsamples = 8\nvalue = [8, 0, 0]"] ;
279 -> 280 ;
281 [label="gini = 0.0\nsamples = 5\nvalue = [0, 0, 5]"] ;
279 -> 281 ;
282 [label="X[12] <= 0.584\ngini = 0.175\nsamples = 115\nvalue = [10, 1, 104]"] ;
278 -> 282 ;
283 [label="X[2] <= 9.5\ngini = 0.363\nsamples = 42\nvalue = [10, 0, 32]"] ;
282 -> 283 ;
284 [label="X[17] <= 0.183\ngini = 0.494\nsamples = 18\nvalue = [8, 0, 10]"] ;
283 -> 284 ;
285 [label="X[4] <= 17.081\ngini = 0.298\nsamples = 11\nvalue = [2, 0, 9]"] ;
284 -> 285 ;
286 [label="gini = 0.0\nsamples = 6\nvalue = [0, 0, 6]"] ;
285 -> 286 ;
287 [label="X[2] <= 7.5\ngini = 0.48\nsamples = 5\nvalue = [2, 0, 3]"] ;
285 -> 287 ;
288 [label="gini = 0.444\nsamples = 3\nvalue = [2, 0, 1]"] ;
287 -> 288 ;
289 [label="gini = 0.0\nsamples = 2\nvalue = [0, 0, 2]"] ;
287 -> 289 ;
290 [label="X[2] <= 6.5\ngini = 0.245\nsamples = 7\nvalue = [6, 0, 1]"] ;
284 -> 290 ;
291 [label="gini = 0.0\nsamples = 4\nvalue = [4, 0, 0]"] ;
290 -> 291 ;
292 [label="X[2] <= 8.0\ngini = 0.444\nsamples = 3\nvalue = [2, 0, 1]"] ;
290 -> 292 ;
293 [label="gini = 0.0\nsamples = 1\nvalue = [0, 0, 1]"] ;
292 -> 293 ;
294 [label="gini = 0.0\nsamples = 2\nvalue = [2, 0, 0]"] ;
292 -> 294 ;
295 [label="X[15] <= 9.5\ngini = 0.153\nsamples = 24\nvalue = [2, 0, 22]"] ;
283 -> 295 ;
296 [label="X[2] <= 12.5\ngini = 0.5\nsamples = 4\nvalue = [2, 0, 2]"] ;
295 -> 296 ;
297 [label="gini = 0.444\nsamples = 3\nvalue = [1, 0, 2]"] ;
296 -> 297 ;
298 [label="gini = 0.0\nsamples = 1\nvalue = [1, 0, 0]"] ;
296 -> 298 ;
299 [label="gini = 0.0\nsamples = 20\nvalue = [0, 0, 20]"] ;
295 -> 299 ;
300 [label="X[20] <= 0.12\ngini = 0.027\nsamples = 73\nvalue = [0, 1, 72]"] ;
282 -> 300 ;
301 [label="gini = 0.0\nsamples = 72\nvalue = [0, 0, 72]"] ;
300 -> 301 ;
302 [label="gini = 0.0\nsamples = 1\nvalue = [0, 1, 0]"] ;
300 -> 302 ;
303 [label="X[5] <= 2093.76\ngini = 0.278\nsamples = 6\nvalue = [0, 5, 1]"] ;
223 -> 303 ;
304 [label="gini = 0.0\nsamples = 5\nvalue = [0, 5, 0]"] ;
303 -> 304 ;
305 [label="gini = 0.0\nsamples = 1\nvalue = [0, 0, 1]"] ;
303 -> 305 ;
306 [label="X[4] <= 12.055\ngini = 0.02\nsamples = 1172\nvalue = [8, 4, 1160]"] ;
222 -> 306 ;
307 [label="gini = 0.0\nsamples = 1\nvalue = [1, 0, 0]"] ;
306 -> 307 ;
308 [label="X[19] <= 3.5\ngini = 0.019\nsamples = 1171\nvalue = [7, 4, 1160]"] ;
306 -> 308 ;
309 [label="X[4] <= 14.539\ngini = 0.32\nsamples = 15\nvalue = [3, 0, 12]"] ;
308 -> 309 ;
310 [label="gini = 0.0\nsamples = 3\nvalue = [3, 0, 0]"] ;
309 -> 310 ;
311 [label="gini = 0.0\nsamples = 12\nvalue = [0, 0, 12]"] ;
309 -> 311 ;
312 [label="X[5] <= 2445.505\ngini = 0.014\nsamples = 1156\nvalue = [4, 4, 1148]"] ;
308 -> 312 ;
313 [label="X[11] <= 18.853\ngini = 0.012\nsamples = 1147\nvalue = [4, 3, 1140]"] ;
312 -> 313 ;
314 [label="X[16] <= 69.0\ngini = 0.011\nsamples = 1137\nvalue = [3, 3, 1131]"] ;
313 -> 314 ;
315 [label="X[4] <= 13.108\ngini = 0.051\nsamples = 154\nvalue = [3, 1, 150]"] ;
314 -> 315 ;
316 [label="gini = 0.0\nsamples = 1\nvalue = [1, 0, 0]"] ;
315 -> 316 ;
317 [label="X[14] <= 1.465\ngini = 0.039\nsamples = 153\nvalue = [2, 1, 150]"] ;
315 -> 317 ;
318 [label="X[18] <= 56.5\ngini = 0.444\nsamples = 3\nvalue = [0, 1, 2]"] ;
317 -> 318 ;
319 [label="gini = 0.0\nsamples = 1\nvalue = [0, 1, 0]"] ;
318 -> 319 ;
320 [label="gini = 0.0\nsamples = 2\nvalue = [0, 0, 2]"] ;
318 -> 320 ;
321 [label="X[5] <= 2297.899\ngini = 0.026\nsamples = 150\nvalue = [2, 0, 148]"] ;
317 -> 321 ;
322 [label="X[9] <= 27.441\ngini = 0.014\nsamples = 146\nvalue = [1, 0, 145]"] ;
321 -> 322 ;
323 [label="gini = 0.0\nsamples = 138\nvalue = [0, 0, 138]"] ;
322 -> 323 ;
324 [label="X[0] <= -36.431\ngini = 0.219\nsamples = 8\nvalue = [1, 0, 7]"] ;
322 -> 324 ;
325 [label="gini = 0.0\nsamples = 1\nvalue = [1, 0, 0]"] ;
324 -> 325 ;
326 [label="gini = 0.0\nsamples = 7\nvalue = [0, 0, 7]"] ;
324 -> 326 ;
327 [label="X[10] <= 345.523\ngini = 0.375\nsamples = 4\nvalue = [1, 0, 3]"] ;
321 -> 327 ;
328 [label="gini = 0.0\nsamples = 1\nvalue = [1, 0, 0]"] ;
327 -> 328 ;
329 [label="gini = 0.0\nsamples = 3\nvalue = [0, 0, 3]"] ;
327 -> 329 ;
330 [label="X[7] <= 35.844\ngini = 0.004\nsamples = 983\nvalue = [0, 2, 981]"] ;
314 -> 330 ;
331 [label="X[5] <= 1892.619\ngini = 0.002\nsamples = 887\nvalue = [0, 1, 886]"] ;
330 -> 331 ;
332 [label="X[5] <= 1891.258\ngini = 0.015\nsamples = 135\nvalue = [0, 1, 134]"] ;
331 -> 332 ;
333 [label="gini = 0.0\nsamples = 134\nvalue = [0, 0, 134]"] ;
332 -> 333 ;
334 [label="gini = 0.0\nsamples = 1\nvalue = [0, 1, 0]"] ;
332 -> 334 ;
335 [label="gini = 0.0\nsamples = 752\nvalue = [0, 0, 752]"] ;
331 -> 335 ;
336 [label="X[9] <= 35.995\ngini = 0.021\nsamples = 96\nvalue = [0, 1, 95]"] ;
330 -> 336 ;
337 [label="gini = 0.0\nsamples = 1\nvalue = [0, 1, 0]"] ;
336 -> 337 ;
338 [label="gini = 0.0\nsamples = 95\nvalue = [0, 0, 95]"] ;
336 -> 338 ;
339 [label="X[11] <= 18.883\ngini = 0.18\nsamples = 10\nvalue = [1, 0, 9]"] ;
313 -> 339 ;
340 [label="gini = 0.0\nsamples = 1\nvalue = [1, 0, 0]"] ;
339 -> 340 ;
341 [label="gini = 0.0\nsamples = 9\nvalue = [0, 0, 9]"] ;
339 -> 341 ;
342 [label="X[15] <= 59.5\ngini = 0.198\nsamples = 9\nvalue = [0, 1, 8]"] ;
312 -> 342 ;
343 [label="gini = 0.0\nsamples = 1\nvalue = [0, 1, 0]"] ;
342 -> 343 ;
344 [label="gini = 0.0\nsamples = 8\nvalue = [0, 0, 8]"] ;
342 -> 344 ;
345 [label="X[20] <= 0.48\ngini = 0.021\nsamples = 5378\nvalue = [27, 31, 5320]"] ;
101 -> 345 ;
346 [label="X[0] <= -38.299\ngini = 0.018\nsamples = 5303\nvalue = [19, 30, 5254]"] ;
345 -> 346 ;
347 [label="X[1] <= 145.269\ngini = 0.5\nsamples = 2\nvalue = [0, 1, 1]"] ;
346 -> 347 ;
348 [label="gini = 0.0\nsamples = 1\nvalue = [0, 0, 1]"] ;
347 -> 348 ;
349 [label="gini = 0.0\nsamples = 1\nvalue = [0, 1, 0]"] ;
347 -> 349 ;
350 [label="X[11] <= 22.226\ngini = 0.018\nsamples = 5301\nvalue = [19, 29, 5253]"] ;
346 -> 350 ;
351 [label="X[1] <= 145.369\ngini = 0.017\nsamples = 5294\nvalue = [18, 28, 5248]"] ;
350 -> 351 ;
352 [label="X[11] <= 17.192\ngini = 0.01\nsamples = 4289\nvalue = [7, 14, 4268]"] ;
351 -> 352 ;
353 [label="X[0] <= -36.697\ngini = 0.008\nsamples = 4219\nvalue = [7, 10, 4202]"] ;
352 -> 353 ;
354 [label="X[9] <= -2.23\ngini = 0.003\nsamples = 2470\nvalue = [3, 1, 2466]"] ;
353 -> 354 ;
355 [label="X[0] <= -37.649\ngini = 0.219\nsamples = 8\nvalue = [1, 0, 7]"] ;
354 -> 355 ;
356 [label="gini = 0.0\nsamples = 7\nvalue = [0, 0, 7]"] ;
355 -> 356 ;
357 [label="gini = 0.0\nsamples = 1\nvalue = [1, 0, 0]"] ;
355 -> 357 ;
358 [label="X[2] <= 67.5\ngini = 0.002\nsamples = 2462\nvalue = [2, 1, 2459]"] ;
354 -> 358 ;
359 [label="X[19] <= 127.5\ngini = 0.002\nsamples = 2407\nvalue = [2, 0, 2405]"] ;
358 -> 359 ;
360 [label="X[2] <= 14.5\ngini = 0.001\nsamples = 2339\nvalue = [1, 0, 2338]"] ;
359 -> 360 ;
361 [label="X[9] <= 33.563\ngini = 0.017\nsamples = 118\nvalue = [1, 0, 117]"] ;
360 -> 361 ;
362 [label="gini = 0.0\nsamples = 113\nvalue = [0, 0, 113]"] ;
361 -> 362 ;
363 [label="X[6] <= 2025.684\ngini = 0.32\nsamples = 5\nvalue = [1, 0, 4]"] ;
361 -> 363 ;
364 [label="gini = 0.0\nsamples = 4\nvalue = [0, 0, 4]"] ;
363 -> 364 ;
365 [label="gini = 0.0\nsamples = 1\nvalue = [1, 0, 0]"] ;
363 -> 365 ;
366 [label="gini = 0.0\nsamples = 2221\nvalue = [0, 0, 2221]"] ;
360 -> 366 ;
367 [label="X[15] <= 3.5\ngini = 0.029\nsamples = 68\nvalue = [1, 0, 67]"] ;
359 -> 367 ;
368 [label="X[2] <= 22.5\ngini = 0.5\nsamples = 2\nvalue = [1, 0, 1]"] ;
367 -> 368 ;
369 [label="gini = 0.0\nsamples = 1\nvalue = [1, 0, 0]"] ;
368 -> 369 ;
370 [label="gini = 0.0\nsamples = 1\nvalue = [0, 0, 1]"] ;
368 -> 370 ;
371 [label="gini = 0.0\nsamples = 66\nvalue = [0, 0, 66]"] ;
367 -> 371 ;
372 [label="X[10] <= 286.078\ngini = 0.036\nsamples = 55\nvalue = [0, 1, 54]"] ;
358 -> 372 ;
373 [label="X[0] <= -37.814\ngini = 0.444\nsamples = 3\nvalue = [0, 1, 2]"] ;
372 -> 373 ;
374 [label="gini = 0.0\nsamples = 2\nvalue = [0, 0, 2]"] ;
373 -> 374 ;
375 [label="gini = 0.0\nsamples = 1\nvalue = [0, 1, 0]"] ;
373 -> 375 ;
376 [label="gini = 0.0\nsamples = 52\nvalue = [0, 0, 52]"] ;
372 -> 376 ;
377 [label="X[0] <= -36.697\ngini = 0.015\nsamples = 1749\nvalue = [4, 9, 1736]"] ;
353 -> 377 ;
378 [label="gini = 0.0\nsamples = 2\nvalue = [0, 2, 0]"] ;
377 -> 378 ;
379 [label="X[20] <= -0.166\ngini = 0.013\nsamples = 1747\nvalue = [4, 7, 1736]"] ;
377 -> 379 ;
380 [label="X[17] <= 0.026\ngini = 0.133\nsamples = 14\nvalue = [0, 1, 13]"] ;
379 -> 380 ;
381 [label="gini = 0.0\nsamples = 1\nvalue = [0, 1, 0]"] ;
380 -> 381 ;
382 [label="gini = 0.0\nsamples = 13\nvalue = [0, 0, 13]"] ;
380 -> 382 ;
383 [label="X[19] <= 47.5\ngini = 0.011\nsamples = 1733\nvalue = [4, 6, 1723]"] ;
379 -> 383 ;
384 [label="X[17] <= 2.128\ngini = 0.002\nsamples = 930\nvalue = [0, 1, 929]"] ;
383 -> 384 ;
385 [label="gini = 0.0\nsamples = 785\nvalue = [0, 0, 785]"] ;
384 -> 385 ;
386 [label="X[17] <= 2.137\ngini = 0.014\nsamples = 145\nvalue = [0, 1, 144]"] ;
384 -> 386 ;
387 [label="gini = 0.0\nsamples = 1\nvalue = [0, 1, 0]"] ;
386 -> 387 ;
388 [label="gini = 0.0\nsamples = 144\nvalue = [0, 0, 144]"] ;
386 -> 388 ;
389 [label="X[10] <= 344.201\ngini = 0.022\nsamples = 803\nvalue = [4, 5, 794]"] ;
383 -> 389 ;
390 [label="X[15] <= 108.5\ngini = 0.018\nsamples = 781\nvalue = [4, 3, 774]"] ;
389 -> 390 ;
391 [label="X[4] <= 17.311\ngini = 0.013\nsamples = 757\nvalue = [3, 2, 752]"] ;
390 -> 391 ;
392 [label="X[13] <= 0.009\ngini = 0.011\nsamples = 738\nvalue = [2, 2, 734]"] ;
391 -> 392 ;
393 [label="X[13] <= 0.009\ngini = 0.025\nsamples = 311\nvalue = [2, 2, 307]"] ;
392 -> 393 ;
394 [label="X[12] <= 1.172\ngini = 0.019\nsamples = 307\nvalue = [1, 2, 304]"] ;
393 -> 394 ;
395 [label="X[13] <= 0.002\ngini = 0.007\nsamples = 283\nvalue = [1, 0, 282]"] ;
394 -> 395 ;
396 [label="X[16] <= 90.5\ngini = 0.057\nsamples = 34\nvalue = [1, 0, 33]"] ;
395 -> 396 ;
397 [label="gini = 0.0\nsamples = 32\nvalue = [0, 0, 32]"] ;
396 -> 397 ;
398 [label="X[13] <= 0.002\ngini = 0.5\nsamples = 2\nvalue = [1, 0, 1]"] ;
396 -> 398 ;
399 [label="gini = 0.0\nsamples = 1\nvalue = [0, 0, 1]"] ;
398 -> 399 ;
400 [label="gini = 0.0\nsamples = 1\nvalue = [1, 0, 0]"] ;
398 -> 400 ;
401 [label="gini = 0.0\nsamples = 249\nvalue = [0, 0, 249]"] ;
395 -> 401 ;
402 [label="X[12] <= 1.252\ngini = 0.153\nsamples = 24\nvalue = [0, 2, 22]"] ;
394 -> 402 ;
403 [label="gini = 0.0\nsamples = 2\nvalue = [0, 2, 0]"] ;
402 -> 403 ;
404 [label="gini = 0.0\nsamples = 22\nvalue = [0, 0, 22]"] ;
402 -> 404 ;
405 [label="X[19] <= 81.5\ngini = 0.375\nsamples = 4\nvalue = [1, 0, 3]"] ;
393 -> 405 ;
406 [label="gini = 0.0\nsamples = 3\nvalue = [0, 0, 3]"] ;
405 -> 406 ;
407 [label="gini = 0.0\nsamples = 1\nvalue = [1, 0, 0]"] ;
405 -> 407 ;
408 [label="gini = 0.0\nsamples = 427\nvalue = [0, 0, 427]"] ;
392 -> 408 ;
409 [label="X[2] <= 14.5\ngini = 0.1\nsamples = 19\nvalue = [1, 0, 18]"] ;
391 -> 409 ;
410 [label="gini = 0.0\nsamples = 1\nvalue = [1, 0, 0]"] ;
409 -> 410 ;
411 [label="gini = 0.0\nsamples = 18\nvalue = [0, 0, 18]"] ;
409 -> 411 ;
412 [label="X[7] <= 15.164\ngini = 0.156\nsamples = 24\nvalue = [1, 1, 22]"] ;
390 -> 412 ;
413 [label="X[2] <= 36.5\ngini = 0.083\nsamples = 23\nvalue = [0, 1, 22]"] ;
412 -> 413 ;
414 [label="gini = 0.0\nsamples = 22\nvalue = [0, 0, 22]"] ;
413 -> 414 ;
415 [label="gini = 0.0\nsamples = 1\nvalue = [0, 1, 0]"] ;
413 -> 415 ;
416 [label="gini = 0.0\nsamples = 1\nvalue = [1, 0, 0]"] ;
412 -> 416 ;
417 [label="X[8] <= 63.595\ngini = 0.165\nsamples = 22\nvalue = [0, 2, 20]"] ;
389 -> 417 ;
418 [label="gini = 0.0\nsamples = 1\nvalue = [0, 1, 0]"] ;
417 -> 418 ;
419 [label="X[13] <= 0.011\ngini = 0.091\nsamples = 21\nvalue = [0, 1, 20]"] ;
417 -> 419 ;
420 [label="gini = 0.0\nsamples = 20\nvalue = [0, 0, 20]"] ;
419 -> 420 ;
421 [label="gini = 0.0\nsamples = 1\nvalue = [0, 1, 0]"] ;
419 -> 421 ;
422 [label="X[13] <= 0.045\ngini = 0.108\nsamples = 70\nvalue = [0, 4, 66]"] ;
352 -> 422 ;
423 [label="gini = 0.0\nsamples = 63\nvalue = [0, 0, 63]"] ;
422 -> 423 ;
424 [label="X[9] <= 17.407\ngini = 0.49\nsamples = 7\nvalue = [0, 4, 3]"] ;
422 -> 424 ;
425 [label="gini = 0.0\nsamples = 4\nvalue = [0, 4, 0]"] ;
424 -> 425 ;
426 [label="gini = 0.0\nsamples = 3\nvalue = [0, 0, 3]"] ;
424 -> 426 ;
427 [label="X[1] <= 145.371\ngini = 0.049\nsamples = 1005\nvalue = [11, 14, 980]"] ;
351 -> 427 ;
428 [label="X[2] <= 23.0\ngini = 0.444\nsamples = 3\nvalue = [2, 0, 1]"] ;
427 -> 428 ;
429 [label="gini = 0.0\nsamples = 2\nvalue = [2, 0, 0]"] ;
428 -> 429 ;
430 [label="gini = 0.0\nsamples = 1\nvalue = [0, 0, 1]"] ;
428 -> 430 ;
431 [label="X[11] <= 6.903\ngini = 0.045\nsamples = 1002\nvalue = [9, 14, 979]"] ;
427 -> 431 ;
432 [label="X[20] <= 0.054\ngini = 0.494\nsamples = 9\nvalue = [2, 1, 6]"] ;
431 -> 432 ;
433 [label="X[6] <= 2170.12\ngini = 0.245\nsamples = 7\nvalue = [1, 0, 6]"] ;
432 -> 433 ;
434 [label="gini = 0.0\nsamples = 5\nvalue = [0, 0, 5]"] ;
433 -> 434 ;
435 [label="X[2] <= 24.5\ngini = 0.5\nsamples = 2\nvalue = [1, 0, 1]"] ;
433 -> 435 ;
436 [label="gini = 0.0\nsamples = 1\nvalue = [1, 0, 0]"] ;
435 -> 436 ;
437 [label="gini = 0.0\nsamples = 1\nvalue = [0, 0, 1]"] ;
435 -> 437 ;
438 [label="X[7] <= 25.493\ngini = 0.5\nsamples = 2\nvalue = [1, 1, 0]"] ;
432 -> 438 ;
439 [label="gini = 0.0\nsamples = 1\nvalue = [0, 1, 0]"] ;
438 -> 439 ;
440 [label="gini = 0.0\nsamples = 1\nvalue = [1, 0, 0]"] ;
438 -> 440 ;
441 [label="X[19] <= 116.5\ngini = 0.04\nsamples = 993\nvalue = [7, 13, 973]"] ;
431 -> 441 ;
442 [label="X[1] <= 145.768\ngini = 0.038\nsamples = 991\nvalue = [6, 13, 972]"] ;
441 -> 442 ;
443 [label="X[2] <= 19.5\ngini = 0.106\nsamples = 126\nvalue = [6, 1, 119]"] ;
442 -> 443 ;
444 [label="X[8] <= 68.759\ngini = 0.354\nsamples = 32\nvalue = [6, 1, 25]"] ;
443 -> 444 ;
445 [label="X[20] <= -0.039\ngini = 0.5\nsamples = 12\nvalue = [6, 0, 6]"] ;
444 -> 445 ;
446 [label="X[2] <= 15.5\ngini = 0.444\nsamples = 9\nvalue = [3, 0, 6]"] ;
445 -> 446 ;
447 [label="gini = 0.0\nsamples = 1\nvalue = [1, 0, 0]"] ;
446 -> 447 ;
448 [label="X[2] <= 18.0\ngini = 0.375\nsamples = 8\nvalue = [2, 0, 6]"] ;
446 -> 448 ;
449 [label="gini = 0.0\nsamples = 5\nvalue = [0, 0, 5]"] ;
448 -> 449 ;
450 [label="X[20] <= -0.094\ngini = 0.444\nsamples = 3\nvalue = [2, 0, 1]"] ;
448 -> 450 ;
451 [label="gini = 0.5\nsamples = 2\nvalue = [1, 0, 1]"] ;
450 -> 451 ;
452 [label="gini = 0.0\nsamples = 1\nvalue = [1, 0, 0]"] ;
450 -> 452 ;
453 [label="gini = 0.0\nsamples = 3\nvalue = [3, 0, 0]"] ;
445 -> 453 ;
454 [label="X[20] <= -0.016\ngini = 0.095\nsamples = 20\nvalue = [0, 1, 19]"] ;
444 -> 454 ;
455 [label="gini = 0.0\nsamples = 1\nvalue = [0, 1, 0]"] ;
454 -> 455 ;
456 [label="gini = 0.0\nsamples = 19\nvalue = [0, 0, 19]"] ;
454 -> 456 ;
457 [label="gini = 0.0\nsamples = 94\nvalue = [0, 0, 94]"] ;
443 -> 457 ;
458 [label="X[0] <= -36.045\ngini = 0.027\nsamples = 865\nvalue = [0, 12, 853]"] ;
442 -> 458 ;
459 [label="X[12] <= 3.377\ngini = 0.023\nsamples = 850\nvalue = [0, 10, 840]"] ;
458 -> 459 ;
460 [label="X[0] <= -36.162\ngini = 0.015\nsamples = 783\nvalue = [0, 6, 777]"] ;
459 -> 460 ;
461 [label="gini = 0.0\nsamples = 445\nvalue = [0, 0, 445]"] ;
460 -> 461 ;
462 [label="X[0] <= -36.161\ngini = 0.035\nsamples = 338\nvalue = [0, 6, 332]"] ;
460 -> 462 ;
463 [label="X[17] <= 0.573\ngini = 0.5\nsamples = 2\nvalue = [0, 1, 1]"] ;
462 -> 463 ;
464 [label="gini = 0.0\nsamples = 1\nvalue = [0, 0, 1]"] ;
463 -> 464 ;
465 [label="gini = 0.0\nsamples = 1\nvalue = [0, 1, 0]"] ;
463 -> 465 ;
466 [label="X[5] <= 2470.454\ngini = 0.029\nsamples = 336\nvalue = [0, 5, 331]"] ;
462 -> 466 ;
467 [label="X[2] <= 26.5\ngini = 0.024\nsamples = 330\nvalue = [0, 4, 326]"] ;
466 -> 467 ;
468 [label="gini = 0.0\nsamples = 238\nvalue = [0, 0, 238]"] ;
467 -> 468 ;
469 [label="X[2] <= 27.5\ngini = 0.083\nsamples = 92\nvalue = [0, 4, 88]"] ;
467 -> 469 ;
470 [label="X[20] <= 0.011\ngini = 0.444\nsamples = 6\nvalue = [0, 2, 4]"] ;
469 -> 470 ;
471 [label="gini = 0.0\nsamples = 4\nvalue = [0, 0, 4]"] ;
470 -> 471 ;
472 [label="gini = 0.0\nsamples = 2\nvalue = [0, 2, 0]"] ;
470 -> 472 ;
473 [label="X[17] <= 0.074\ngini = 0.045\nsamples = 86\nvalue = [0, 2, 84]"] ;
469 -> 473 ;
474 [label="X[4] <= 15.405\ngini = 0.219\nsamples = 16\nvalue = [0, 2, 14]"] ;
473 -> 474 ;
475 [label="gini = 0.0\nsamples = 14\nvalue = [0, 0, 14]"] ;
474 -> 475 ;
476 [label="gini = 0.0\nsamples = 2\nvalue = [0, 2, 0]"] ;
474 -> 476 ;
477 [label="gini = 0.0\nsamples = 70\nvalue = [0, 0, 70]"] ;
473 -> 477 ;
478 [label="X[6] <= 2251.908\ngini = 0.278\nsamples = 6\nvalue = [0, 1, 5]"] ;
466 -> 478 ;
479 [label="gini = 0.0\nsamples = 1\nvalue = [0, 1, 0]"] ;
478 -> 479 ;
480 [label="gini = 0.0\nsamples = 5\nvalue = [0, 0, 5]"] ;
478 -> 480 ;
481 [label="X[0] <= -36.38\ngini = 0.112\nsamples = 67\nvalue = [0, 4, 63]"] ;
459 -> 481 ;
482 [label="gini = 0.0\nsamples = 61\nvalue = [0, 0, 61]"] ;
481 -> 482 ;
483 [label="X[21] <= 246.0\ngini = 0.444\nsamples = 6\nvalue = [0, 4, 2]"] ;
481 -> 483 ;
484 [label="gini = 0.0\nsamples = 4\nvalue = [0, 4, 0]"] ;
483 -> 484 ;
485 [label="gini = 0.0\nsamples = 2\nvalue = [0, 0, 2]"] ;
483 -> 485 ;
486 [label="X[12] <= 0.774\ngini = 0.231\nsamples = 15\nvalue = [0, 2, 13]"] ;
458 -> 486 ;
487 [label="gini = 0.0\nsamples = 2\nvalue = [0, 2, 0]"] ;
486 -> 487 ;
488 [label="gini = 0.0\nsamples = 13\nvalue = [0, 0, 13]"] ;
486 -> 488 ;
489 [label="X[6] <= 2170.422\ngini = 0.5\nsamples = 2\nvalue = [1, 0, 1]"] ;
441 -> 489 ;
490 [label="gini = 0.0\nsamples = 1\nvalue = [1, 0, 0]"] ;
489 -> 490 ;
491 [label="gini = 0.0\nsamples = 1\nvalue = [0, 0, 1]"] ;
489 -> 491 ;
492 [label="X[19] <= 92.5\ngini = 0.449\nsamples = 7\nvalue = [1, 1, 5]"] ;
350 -> 492 ;
493 [label="X[17] <= 0.037\ngini = 0.278\nsamples = 6\nvalue = [0, 1, 5]"] ;
492 -> 493 ;
494 [label="gini = 0.0\nsamples = 1\nvalue = [0, 1, 0]"] ;
493 -> 494 ;
495 [label="gini = 0.0\nsamples = 5\nvalue = [0, 0, 5]"] ;
493 -> 495 ;
496 [label="gini = 0.0\nsamples = 1\nvalue = [1, 0, 0]"] ;
492 -> 496 ;
497 [label="X[0] <= -36.089\ngini = 0.214\nsamples = 75\nvalue = [8, 1, 66]"] ;
345 -> 497 ;
498 [label="X[19] <= 4.5\ngini = 0.09\nsamples = 64\nvalue = [2, 1, 61]"] ;
497 -> 498 ;
499 [label="X[2] <= 28.5\ngini = 0.375\nsamples = 8\nvalue = [2, 0, 6]"] ;
498 -> 499 ;
500 [label="X[2] <= 19.5\ngini = 0.245\nsamples = 7\nvalue = [1, 0, 6]"] ;
499 -> 500 ;
501 [label="X[2] <= 16.5\ngini = 0.5\nsamples = 2\nvalue = [1, 0, 1]"] ;
500 -> 501 ;
502 [label="gini = 0.0\nsamples = 1\nvalue = [0, 0, 1]"] ;
501 -> 502 ;
503 [label="gini = 0.0\nsamples = 1\nvalue = [1, 0, 0]"] ;
501 -> 503 ;
504 [label="gini = 0.0\nsamples = 5\nvalue = [0, 0, 5]"] ;
500 -> 504 ;
505 [label="gini = 0.0\nsamples = 1\nvalue = [1, 0, 0]"] ;
499 -> 505 ;
506 [label="X[6] <= 1661.945\ngini = 0.035\nsamples = 56\nvalue = [0, 1, 55]"] ;
498 -> 506 ;
507 [label="X[20] <= 1.521\ngini = 0.444\nsamples = 3\nvalue = [0, 1, 2]"] ;
506 -> 507 ;
508 [label="gini = 0.0\nsamples = 1\nvalue = [0, 1, 0]"] ;
507 -> 508 ;
509 [label="gini = 0.0\nsamples = 2\nvalue = [0, 0, 2]"] ;
507 -> 509 ;
510 [label="gini = 0.0\nsamples = 53\nvalue = [0, 0, 53]"] ;
506 -> 510 ;
511 [label="X[2] <= 21.5\ngini = 0.496\nsamples = 11\nvalue = [6, 0, 5]"] ;
497 -> 511 ;
512 [label="gini = 0.0\nsamples = 5\nvalue = [5, 0, 0]"] ;
511 -> 512 ;
513 [label="X[7] <= 47.845\ngini = 0.278\nsamples = 6\nvalue = [1, 0, 5]"] ;
511 -> 513 ;
514 [label="X[2] <= 27.0\ngini = 0.444\nsamples = 3\nvalue = [1, 0, 2]"] ;
513 -> 514 ;
515 [label="gini = 0.0\nsamples = 2\nvalue = [0, 0, 2]"] ;
514 -> 515 ;
516 [label="gini = 0.0\nsamples = 1\nvalue = [1, 0, 0]"] ;
514 -> 516 ;
517 [label="gini = 0.0\nsamples = 3\nvalue = [0, 0, 3]"] ;
513 -> 517 ;
518 [label="gini = 0.0\nsamples = 127\nvalue = [127, 0, 0]"] ;
0 -> 518 [labeldistance=2.5, labelangle=-45, headlabel="False"] ;
}
